{"learner":{"attributes":{"best_iteration":"570","best_score":"116203.03676470589","scikit_learn":"{\"_estimator_type\": \"regressor\"}"},"feature_names":["Portions_Sold","Portions_Prepared","Waste_Portions","Waste_Pct","Ingredient_Cost_UGX","Is_Weekend","Academic_Period_num","lag_1","lag_2","lag_3","lag_7","lag_14","lag_21","roll_mean_7","roll_std_7","roll_max_7","roll_min_7","roll_mean_14","roll_std_14","roll_max_14","roll_min_14","roll_mean_21","roll_std_21","roll_max_21","roll_min_21","day_of_week","month","week_of_year","quarter","day_of_month","is_month_end","profit_margin","waste_ratio"],"feature_types":["int","int","int","float","float","int","float","float","float","float","float","float","float","float","float","float","float","float","float","float","float","float","float","float","float","int","int","int","int","int","int","float","float"],"gradient_booster":{"model":{"gbtree_model_param":{"num_parallel_tree":"1","num_trees":"601"},"iteration_indptr":[0,1,2,3,4,5,6,7,8,9,10,11,12,13,14,15,16,17,18,19,20,21,22,23,24,25,26,27,28,29,30,31,32,33,34,35,36,37,38,39,40,41,42,43,44,45,46,47,48,49,50,51,52,53,54,55,56,57,58,59,60,61,62,63,64,65,66,67,68,69,70,71,72,73,74,75,76,77,78,79,80,81,82,83,84,85,86,87,88,89,90,91,92,93,94,95,96,97,98,99,100,101,102,103,104,105,106,107,108,109,110,111,112,113,114,115,116,117,118,119,120,121,122,123,124,125,126,127,128,129,130,131,132,133,134,135,136,137,138,139,140,141,142,143,144,145,146,147,148,149,150,151,152,153,154,155,156,157,158,159,160,161,162,163,164,165,166,167,168,169,170,171,172,173,174,175,176,177,178,179,180,181,182,183,184,185,186,187,188,189,190,191,192,193,194,195,196,197,198,199,200,201,202,203,204,205,206,207,208,209,210,211,212,213,214,215,216,217,218,219,220,221,222,223,224,225,226,227,228,229,230,231,232,233,234,235,236,237,238,239,240,241,242,243,244,245,246,247,248,249,250,251,252,253,254,255,256,257,258,259,260,261,262,263,264,265,266,267,268,269,270,271,272,273,274,275,276,277,278,279,280,281,282,283,284,285,286,287,288,289,290,291,292,293,294,295,296,297,298,299,300,301,302,303,304,305,306,307,308,309,310,311,312,313,314,315,316,317,318,319,320,321,322,323,324,325,326,327,328,329,330,331,332,333,334,335,336,337,338,339,340,341,342,343,344,345,346,347,348,349,350,351,352,353,354,355,356,357,358,359,360,361,362,363,364,365,366,367,368,369,370,371,372,373,374,375,376,377,378,379,380,381,382,383,384,385,386,387,388,389,390,391,392,393,394,395,396,397,398,399,400,401,402,403,404,405,406,407,408,409,410,411,412,413,414,415,416,417,418,419,420,421,422,423,424,425,426,427,428,429,430,431,432,433,434,435,436,437,438,439,440,441,442,443,444,445,446,447,448,449,450,451,452,453,454,455,456,457,458,459,460,461,462,463,464,465,466,467,468,469,470,471,472,473,474,475,476,477,478,479,480,481,482,483,484,485,486,487,488,489,490,491,492,493,494,495,496,497,498,499,500,501,502,503,504,505,506,507,508,509,510,511,512,513,514,515,516,517,518,519,520,521,522,523,524,525,526,527,528,529,530,531,532,533,534,535,536,537,538,539,540,541,542,543,544,545,546,547,548,549,550,551,552,553,554,555,556,557,558,559,560,561,562,563,564,565,566,567,568,569,570,571,572,573,574,575,576,577,578,579,580,581,582,583,584,585,586,587,588,589,590,591,592,593,594,595,596,597,598,599,600,601],"tree_info":[0,0,0,0,0,0,0,0,0,0,0,0,0,0,0,0,0,0,0,0,0,0,0,0,0,0,0,0,0,0,0,0,0,0,0,0,0,0,0,0,0,0,0,0,0,0,0,0,0,0,0,0,0,0,0,0,0,0,0,0,0,0,0,0,0,0,0,0,0,0,0,0,0,0,0,0,0,0,0,0,0,0,0,0,0,0,0,0,0,0,0,0,0,0,0,0,0,0,0,0,0,0,0,0,0,0,0,0,0,0,0,0,0,0,0,0,0,0,0,0,0,0,0,0,0,0,0,0,0,0,0,0,0,0,0,0,0,0,0,0,0,0,0,0,0,0,0,0,0,0,0,0,0,0,0,0,0,0,0,0,0,0,0,0,0,0,0,0,0,0,0,0,0,0,0,0,0,0,0,0,0,0,0,0,0,0,0,0,0,0,0,0,0,0,0,0,0,0,0,0,0,0,0,0,0,0,0,0,0,0,0,0,0,0,0,0,0,0,0,0,0,0,0,0,0,0,0,0,0,0,0,0,0,0,0,0,0,0,0,0,0,0,0,0,0,0,0,0,0,0,0,0,0,0,0,0,0,0,0,0,0,0,0,0,0,0,0,0,0,0,0,0,0,0,0,0,0,0,0,0,0,0,0,0,0,0,0,0,0,0,0,0,0,0,0,0,0,0,0,0,0,0,0,0,0,0,0,0,0,0,0,0,0,0,0,0,0,0,0,0,0,0,0,0,0,0,0,0,0,0,0,0,0,0,0,0,0,0,0,0,0,0,0,0,0,0,0,0,0,0,0,0,0,0,0,0,0,0,0,0,0,0,0,0,0,0,0,0,0,0,0,0,0,0,0,0,0,0,0,0,0,0,0,0,0,0,0,0,0,0,0,0,0,0,0,0,0,0,0,0,0,0,0,0,0,0,0,0,0,0,0,0,0,0,0,0,0,0,0,0,0,0,0,0,0,0,0,0,0,0,0,0,0,0,0,0,0,0,0,0,0,0,0,0,0,0,0,0,0,0,0,0,0,0,0,0,0,0,0,0,0,0,0,0,0,0,0,0,0,0,0,0,0,0,0,0,0,0,0,0,0,0,0,0,0,0,0,0,0,0,0,0,0,0,0,0,0,0,0,0,0,0,0,0,0,0,0,0,0,0,0,0,0,0,0,0,0,0,0,0,0,0,0,0,0,0,0,0,0,0,0,0,0,0,0,0,0,0,0,0,0,0,0,0,0,0,0,0,0,0,0,0,0,0,0,0,0,0,0,0,0,0,0,0,0,0,0,0,0,0,0,0,0,0,0,0,0,0,0,0,0,0,0,0,0,0,0,0,0,0,0,0,0,0,0,0,0,0,0,0,0],"trees":[{"base_weights":[-2.045977E-2,-2.9851351E-2,2.9705606E-2],"categories":[],"categories_nodes":[],"categories_segments":[],"categories_sizes":[],"default_left":[0,0,0],"id":0,"left_children":[1,-1,-1],"loss_changes":[4.2944394E2,0E0,0E0],"parents":[2147483647,0,0],"right_children":[2,-1,-1],"split_conditions":[5.291E3,-1.7697E5,3.8118E5],"split_indices":[0,0,0],"split_type":[0,0,0],"sum_hessian":[4.34E2,2.21E2,2.13E2],"tree_param":{"num_deleted":"0","num_feature":"33","num_nodes":"3","size_leaf_vector":"1"}},{"base_weights":[-1.6197182E-2,-2.9847221E-2,9.8530805E-1,1.45E-2,2.9839804E-2],"categories":[],"categories_nodes":[],"categories_segments":[],"categories_sizes":[],"default_left":[0,0,0,0,0],"id":1,"left_children":[1,-1,3,-1,-1],"loss_changes":[4.185394E2,0E0,3.619995E-1,0E0,0E0],"parents":[2147483647,0,0,2,2],"right_children":[2,-1,4,-1,-1],"split_conditions":[1.0512198E7,-1.7145089E5,5.536E3,6.3246E3,3.720996E5],"split_indices":[4,0,0,0,0],"split_type":[0,0,0,0,0],"sum_hessian":[4.25E2,2.15E2,2.1E2,5E0,2.05E2],"tree_param":{"num_deleted":"0","num_feature":"33","num_nodes":"5","size_leaf_vector":"1"}},{"base_weights":[-4.449649E-3,-2.9844338E-2,9.6712965E-1,-0E0,2.9842855E-2],"categories":[],"categories_nodes":[],"categories_segments":[],"categories_sizes":[],"default_left":[0,0,0,0,0],"id":2,"left_children":[1,-1,3,-1,-1],"loss_changes":[4.1183063E2,0E0,5.7723846E0,0E0,0E0],"parents":[2147483647,0,0,2,2],"right_children":[2,-1,4,-1,-1],"split_conditions":[5.249E3,-1.6572239E5,5.464E3,-2.22876E3,3.609366E5],"split_indices":[0,0,0,0,0],"split_type":[0,0,0,0,0],"sum_hessian":[4.26E2,2.11E2,2.15E2,6E0,2.09E2],"tree_param":{"num_deleted":"0","num_feature":"33","num_nodes":"5","size_leaf_vector":"1"}},{"base_weights":[8.965517E-3,-9.675799E-1,2.9847926E-2,-2.9843602E-2,-6.3333334E-3],"categories":[],"categories_nodes":[],"categories_segments":[],"categories_sizes":[],"default_left":[0,0,0,0,0],"id":3,"left_children":[1,3,-1,-1,-1],"loss_changes":[4.1980078E2,4.1766663E0,0E0,0E0,0E0],"parents":[2147483647,0,0,1,1],"right_children":[2,4,-1,-1,-1],"split_conditions":[6.425E3,1.0160643E7,3.503935E5,-1.6084823E5,-1.49286E3],"split_indices":[1,4,0,0,0],"split_type":[0,0,0,0,0],"sum_hessian":[4.34E2,2.18E2,2.16E2,2.1E2,8E0],"tree_param":{"num_deleted":"0","num_feature":"33","num_nodes":"5","size_leaf_vector":"1"}},{"base_weights":[1.09375E-2,-9.511013E-1,2.9851351E-2,-2.9843602E-2,-3.4705883E-1,1.45E-2,-2.225E-2],"categories":[],"categories_nodes":[],"categories_segments":[],"categories_sizes":[],"default_left":[0,0,0,0,0,0,0],"id":4,"left_children":[1,3,-1,-1,5,-1,-1],"loss_changes":[4.2509464E2,5.51062E0,0E0,0E0,5.954853E0,0E0,0E0],"parents":[2147483647,0,0,1,1,4,4],"right_children":[2,4,-1,-1,6,-1,-1],"split_conditions":[1.1135899E7,1.0024487E7,3.391467E5,-1.594128E5,1.2653571E1,5.742E2,-3.1983E3],"split_indices":[4,4,0,0,3,0,0],"split_type":[0,0,0,0,0,0,0],"sum_hessian":[4.47E2,2.26E2,2.21E2,2.1E2,1.6E1,5E0,1.1E1],"tree_param":{"num_deleted":"0","num_feature":"33","num_nodes":"7","size_leaf_vector":"1"}},{"base_weights":[3.0957684E-2,-9.1585904E-1,2.9852016E-2,-9.846535E-1,-3.423077E-1,-2.9832486E-2,-1.45E-2,2.0714286E-1,-2.7461536E-2,2.5285713E-2,-1.0875E-2],"categories":[],"categories_nodes":[],"categories_segments":[],"categories_sizes":[],"default_left":[0,0,0,0,0,0,0,0,0,0,0],"id":5,"left_children":[1,3,-1,5,7,-1,-1,9,-1,-1,-1],"loss_changes":[4.1078223E2,8.48703E0,0E0,3.602295E-1,8.447253E0,0E0,0E0,5.4233932E0,0E0,0E0,0E0],"parents":[2147483647,0,0,1,1,3,3,4,4,7,7],"right_children":[2,4,-1,6,8,-1,-1,10,-1,-1,-1],"split_conditions":[6.682E3,5.874E3,3.357073E5,3.33795E7,1.2911436E-1,-1.5934044E5,-1.5190794E5,3.943074E-1,-3.48768E3,1.21719E3,-3.1023599E3],"split_indices":[1,1,0,7,32,0,0,31,0,0,0],"split_type":[0,0,0,0,0,0,0,0,0,0,0],"sum_hessian":[4.48E2,2.26E2,2.22E2,2.01E2,2.5E1,1.96E2,5E0,1.3E1,1.2E1,6E0,7E0],"tree_param":{"num_deleted":"0","num_feature":"33","num_nodes":"11","size_leaf_vector":"1"}},{"base_weights":[8.924485E-3,-8.5E-1,2.9838236E-2,-2.9830769E-2,-1.225E-1,6.076923E-1,-4.6071428E-1,4.5000003E-3,2.5875E-2,-1.6111112E-1,-2.6999999E-2,-2.5285713E-2,7.25E-3],"categories":[],"categories_nodes":[],"categories_segments":[],"categories_sizes":[],"default_left":[0,0,0,0,0,0,0,0,0,0,0,0,0],"id":6,"left_children":[1,3,-1,-1,5,7,9,-1,-1,11,-1,-1,-1],"loss_changes":[3.7083612E2,2.4341461E1,0E0,0E0,1.0143734E1,1.285481E0,3.4340076E0,0E0,0E0,5.2064686E0,0E0,0E0,0E0],"parents":[2147483647,0,0,1,1,4,4,5,5,6,6,9,9],"right_children":[2,4,-1,-1,6,8,10,-1,-1,12,-1,-1,-1],"split_conditions":[6.12E3,5.015E3,3.1965106E5,-1.5550523E5,3.2273E7,1.3061905E1,1.3058333E1,6.5004E2,2.4908398E3,3.29905E7,-4.5279E3,-1.02552E3,1.5907799E3],"split_indices":[0,0,0,0,9,3,3,0,0,8,0,0,0],"split_type":[0,0,0,0,0,0,0,0,0,0,0,0,0],"sum_hessian":[4.36E2,2.33E2,2.03E2,1.94E2,3.9E1,1.2E1,2.7E1,5E0,7E0,1.7E1,1E1,6E0,1.1E1],"tree_param":{"num_deleted":"0","num_feature":"33","num_nodes":"13","size_leaf_vector":"1"}},{"base_weights":[-6.6210045E-3,-2.9842105E-2,8.9086956E-1,1.6333333E-1,2.983582E-2,7E-1,-4.9285713E-1,4.5000003E-3,2.725E-2,4.5000003E-3,-2.6333332E-2],"categories":[],"categories_nodes":[],"categories_segments":[],"categories_sizes":[],"default_left":[0,0,0,0,0,0,0,0,0,0,0],"id":7,"left_children":[1,-1,3,5,-1,7,9,-1,-1,-1,-1],"loss_changes":[3.8932578E2,0E0,1.7067184E1,1.0930382E1,0E0,1.7058334E0,3.6687303E0,0E0,0E0,0E0,0E0],"parents":[2147483647,0,0,2,2,3,3,5,5,6,6],"right_children":[2,-1,4,6,-1,8,10,-1,-1,-1,-1],"split_conditions":[9.841685E6,-1.6621506E5,1.1452962E7,7.99E2,3.143815E5,3.8693038E-1,1.8738E7,3.21168E3,1.9281E3,3.744E1,-2.74368E3],"split_indices":[4,0,4,2,0,31,10,0,0,0,0],"split_type":[0,0,0,0,0,0,0,0,0,0,0],"sum_hessian":[4.37E2,2.08E2,2.29E2,2.9E1,2E2,1.6E1,1.3E1,5E0,1.1E1,5E0,8E0],"tree_param":{"num_deleted":"0","num_feature":"33","num_nodes":"11","size_leaf_vector":"1"}},{"base_weights":[2.0045046E-2,-9.845E-1,8.4040815E-1,-2.9830769E-2,-1.45E-2,9.0697676E-2,2.9837437E-2,4.483871E-1,-2.2846153E-2,2.41875E-2,5.625E-2,2.45E-2,-1.0636363E-2],"categories":[],"categories_nodes":[],"categories_segments":[],"categories_sizes":[],"default_left":[0,0,0,0,0,0,0,0,0,0,0,0,0],"id":8,"left_children":[1,3,5,-1,-1,7,-1,9,-1,-1,11,-1,-1],"loss_changes":[3.667097E2,3.5983276E-1,2.8119629E1,0E0,0E0,1.3418091E1,0E0,4.2186694E0,0E0,0E0,5.333769E0,0E0,0E0],"parents":[2147483647,0,0,1,1,2,2,5,5,7,7,10,10],"right_children":[2,4,6,-1,-1,8,-1,10,-1,-1,12,-1,-1],"split_conditions":[9.741291E6,5.652E3,1.1746517E7,-1.5313608E5,-3.23598E3,6.361E3,3.0661506E5,1.76575E7,-2.76228E3,2.78892E3,6.337822E6,3.65424E3,-3.4053E2],"split_indices":[4,1,4,0,0,1,0,16,0,0,22,0,0],"split_type":[0,0,0,0,0,0,0,0,0,0,0,0,0],"sum_hessian":[4.43E2,1.99E2,2.44E2,1.94E2,5E0,4.2E1,2.02E2,3E1,1.2E1,1.5E1,1.5E1,5E0,1E1],"tree_param":{"num_deleted":"0","num_feature":"33","num_nodes":"13","size_leaf_vector":"1"}},{"base_weights":[3.3863638E-2,-9.843434E-1,8.63786E-1,-2.9829016E-2,-1.45E-2,2.6470589E-2,2.9842855E-2,5.173913E-1,-2.725E-2,-3.3749999E-3,2.41875E-2],"categories":[],"categories_nodes":[],"categories_segments":[],"categories_sizes":[],"default_left":[0,0,0,0,0,0,0,0,0,0,0],"id":9,"left_children":[1,3,5,-1,-1,7,-1,9,-1,-1,-1],"loss_changes":[3.7265265E2,3.5939026E-1,2.6520905E1,0E0,0E0,1.6033966E1,0E0,4.3449183E0,0E0,0E0,0E0],"parents":[2147483647,0,0,1,1,2,2,5,5,7,7],"right_children":[2,4,6,-1,-1,8,-1,10,-1,-1,-1],"split_conditions":[9.741291E6,4.942E3,1.2002276E7,-1.52232E5,-1.554E3,8.12E2,2.9149156E5,1.2860714E1,-4.37958E3,-3.5556E2,2.27466E3],"split_indices":[4,0,4,0,0,2,0,3,0,0,0],"split_type":[0,0,0,0,0,0,0,0,0,0,0],"sum_hessian":[4.39E2,1.97E2,2.42E2,1.92E2,5E0,3.3E1,2.09E2,2.2E1,1.1E1,7E0,1.5E1],"tree_param":{"num_deleted":"0","num_feature":"33","num_nodes":"11","size_leaf_vector":"1"}},{"base_weights":[2.1951219E-2,-9.845771E-1,8.282868E-1,-1.45E-2,-2.9831631E-2,2.0454545E-2,2.9841345E-2,7.1666664E-1,-4.4074073E-1,4.5000003E-3,2.7461536E-2,-2.452941E-2,1.7272727E-1,2.45E-2,-1.45E-2],"categories":[],"categories_nodes":[],"categories_segments":[],"categories_sizes":[],"default_left":[0,0,0,0,0,0,0,0,0,0,0,0,0,0,0],"id":10,"left_children":[1,3,5,-1,-1,7,-1,9,11,-1,-1,-1,13,-1,-1],"loss_changes":[3.6683133E2,3.600464E-1,3.3623383E1,0E0,0E0,1.4471406E1,0E0,1.7830772E0,6.448662E0,0E0,0E0,0E0,5.0751514E0,0E0,0E0],"parents":[2147483647,0,0,1,1,2,2,5,5,7,7,8,8,12,12],"right_children":[2,4,6,-1,-1,8,-1,10,12,-1,-1,-1,14,-1,-1],"split_conditions":[9.802129E6,1.1536904E1,6.23E3,-1.5074003E5,-1.4903003E5,5.894E3,2.882218E5,2.7914858E7,1.9E1,8.406E1,1.73913E3,-3.18939E3,8.12E2,3.05016E3,-4.2481797E3],"split_indices":[4,3,0,0,0,1,0,13,27,0,0,0,2,0,0],"split_type":[0,0,0,0,0,0,0,0,0,0,0,0,0,0,0],"sum_hessian":[4.5E2,2E2,2.5E2,5E0,1.95E2,4.3E1,2.07E2,1.7E1,2.6E1,5E0,1.2E1,1.6E1,1E1,5E0,5E0],"tree_param":{"num_deleted":"0","num_feature":"33","num_nodes":"15","size_leaf_vector":"1"}},{"base_weights":[3.3333335E-2,-9.827778E-1,8.0210084E-1,-2.9810345E-2,-1.6714286E-2,7.647059E-2,2.9824467E-2,5.7741934E-1,-6.6190475E-1,8.45E-1,7.5E-2,-0E0,-2.78E-2,2.78E-2,1.45E-2,-1.45E-2,1.6714286E-2],"categories":[],"categories_nodes":[],"categories_segments":[],"categories_sizes":[],"default_left":[0,0,0,0,0,0,0,0,0,0,0,0,0,0,0,0,0],"id":11,"left_children":[1,3,5,-1,-1,7,-1,9,11,13,15,-1,-1,-1,-1,-1,-1],"loss_changes":[3.2651108E2,1.2643433E-1,3.2983612E1,0E0,0E0,1.9238049E1,0E0,4.0121927E0,3.68019E0,1.8339157E-3,3.5070236E0,0E0,0E0,0E0,0E0,0E0,0E0],"parents":[2147483647,0,0,1,1,2,2,5,5,7,7,8,8,9,9,10,10],"right_children":[2,4,6,-1,-1,8,-1,10,12,14,16,-1,-1,-1,-1,-1,-1],"split_conditions":[4.896E3,9.422754E6,8.806E3,-1.4621784E5,-3.07764E3,8.03E2,2.8193016E5,5.894E3,3.1316358E7,3.35285E7,5.175E3,-3.5000998E2,-4.29981E3,3.702E3,1.38588E3,-2.7762E2,4.02465E3],"split_indices":[0,4,1,0,0,2,0,1,13,9,0,0,0,0,0,0,0],"split_type":[0,0,0,0,0,0,0,0,0,0,0,0,0,0,0,0,0],"sum_hessian":[4.16E2,1.79E2,2.37E2,1.73E2,6E0,5E1,1.87E2,3E1,2E1,1.9E1,1.1E1,6E0,1.4E1,1.4E1,5E0,5E0,6E0],"tree_param":{"num_deleted":"0","num_feature":"33","num_nodes":"17","size_leaf_vector":"1"}},{"base_weights":[2.748268E-2,-9.836842E-1,8.151639E-1,-2.9821621E-2,-1.45E-2,1.490566E-1,2.9828126E-2,5.102564E-1,-2.38E-2,7.875E-1,5.625E-2,1.6090909E-2,2.7642855E-2,-1.0636363E-2,2.45E-2],"categories":[],"categories_nodes":[],"categories_segments":[],"categories_sizes":[],"default_left":[0,0,0,0,0,0,0,0,0,0,0,0,0,0,0],"id":12,"left_children":[1,3,5,-1,-1,7,-1,9,-1,11,13,-1,-1,-1,-1],"loss_changes":[3.4565964E2,3.5765076E-1,2.8847733E1,0E0,0E0,1.8417223E1,0E0,4.7802715E0,0E0,1.6722393E-1,5.333769E0,0E0,0E0,0E0,0E0],"parents":[2147483647,0,0,1,1,2,2,5,5,7,7,9,9,10,10],"right_children":[2,4,6,-1,-1,8,-1,10,-1,12,14,-1,-1,-1,-1],"split_conditions":[9.500604E6,4.728E3,6.23E3,-1.513776E5,-9.438E2,7.7344255E6,2.6558225E5,5.894E3,-4.17081E3,1.2928572E1,7.4687785E6,1.30188E3,3.2982E3,-2.1675E2,4.3716E3],"split_indices":[4,0,0,0,0,18,0,1,0,3,14,0,0,0,0],"split_type":[0,0,0,0,0,0,0,0,0,0,0,0,0,0,0],"sum_hessian":[4.32E2,1.89E2,2.43E2,1.84E2,5E0,5.2E1,1.91E2,3.8E1,1.4E1,2.3E1,1.5E1,1E1,1.3E1,1E1,5E0],"tree_param":{"num_deleted":"0","num_feature":"33","num_nodes":"15","size_leaf_vector":"1"}},{"base_weights":[3.270588E-2,-9.8342246E-1,8.2803345E-1,-1.45E-2,-2.981868E-2,1.9411765E-1,2.9825397E-2,6.8285716E-1,-2.452941E-2,2.8166667E-2,3.8333333E-1,2.225E-2,-8.142858E-3],"categories":[],"categories_nodes":[],"categories_segments":[],"categories_sizes":[],"default_left":[0,0,0,0,0,0,0,0,0,0,0,0,0],"id":13,"left_children":[1,3,5,-1,-1,7,-1,9,-1,-1,11,-1,-1],"loss_changes":[3.4426462E2,3.569336E-1,2.4860336E1,0E0,0E0,2.5763817E1,0E0,2.1919365E0,0E0,0E0,4.4715476E0,0E0,0E0],"parents":[2147483647,0,0,1,1,2,2,5,5,7,7,10,10],"right_children":[2,4,6,-1,-1,8,-1,10,-1,-1,12,-1,-1],"split_conditions":[9.535528E6,1.1705953E1,7.16E3,-1.0195626E5,-1.4554625E5,6.183E3,2.619348E5,1.2911436E-1,-4.02498E3,2.8134E3,1.5E1,3.19926E3,-4.1022E2],"split_indices":[4,3,1,0,0,1,0,32,0,0,29,0,0],"split_type":[0,0,0,0,0,0,0,0,0,0,0,0,0],"sum_hessian":[4.24E2,1.86E2,2.38E2,5E0,1.81E2,5E1,1.88E2,3.4E1,1.6E1,1.7E1,1.7E1,1.1E1,6E0],"tree_param":{"num_deleted":"0","num_feature":"33","num_nodes":"13","size_leaf_vector":"1"}},{"base_weights":[1.1270588E-1,-2.9801205E-2,8.1884617E-1,2.4032257E-1,2.9834172E-2,5.285714E-1,-2.3357142E-2,7.2424245E-1,1.1176471E-1,-4.5000003E-3,2.6678571E-2,1.8375E-2,-8.699999E-3],"categories":[],"categories_nodes":[],"categories_segments":[],"categories_sizes":[],"default_left":[0,0,0,0,0,0,0,0,0,0,0,0,0],"id":14,"left_children":[1,-1,3,5,-1,7,-1,9,11,-1,-1,-1,-1],"loss_changes":[3.3274103E2,0E0,2.6054535E1,1.8595621E1,0E0,3.831748E0,0E0,4.9688206E0,3.6298969E0,0E0,0E0,0E0,0E0],"parents":[2147483647,0,0,2,2,3,3,5,5,7,7,8,8],"right_children":[2,-1,4,6,-1,8,-1,10,12,-1,-1,-1,-1],"split_conditions":[9.210627E6,-1.3822488E5,7.16E3,3.8943E7,2.5574178E5,5.894E3,-7.8726597E3,1.6929E7,1.2840535E-1,-6.1859997E1,2.6863198E3,2.8275E3,-2.505E2],"split_indices":[4,0,1,15,0,1,0,16,32,0,0,0,0],"split_type":[0,0,0,0,0,0,0,0,0,0,0,0,0],"sum_hessian":[4.24E2,1.65E2,2.59E2,6.1E1,1.98E2,4.8E1,1.3E1,3.2E1,1.6E1,5E0,2.7E1,7E0,9E0],"tree_param":{"num_deleted":"0","num_feature":"33","num_nodes":"13","size_leaf_vector":"1"}},{"base_weights":[6.384439E-2,-9.828729E-1,8.011673E-1,-1.45E-2,-2.9812498E-2,1.0350877E-1,2.983582E-2,8.590909E-1,-3.5833332E-1,1.45E-2,2.8058821E-2,4.0833333E-1,-7.16E-1,2.5285713E-2,-4.5000003E-3,-8.699999E-3,-2.7937498E-2],"categories":[],"categories_nodes":[],"categories_segments":[],"categories_sizes":[],"default_left":[0,0,0,0,0,0,0,0,0,0,0,0,0,0,0,0,0],"id":15,"left_children":[1,3,5,-1,-1,7,-1,9,11,-1,-1,13,15,-1,-1,-1,-1],"loss_changes":[3.3803217E2,3.554535E-1,3.445639E1,0E0,0E0,2.0248615E1,0E0,3.6024094E-2,1.0194735E1,0E0,0E0,3.1070244E0,1.9002237E0,0E0,0E0,0E0,0E0],"parents":[2147483647,0,0,1,1,2,2,5,5,7,7,8,8,11,11,12,12],"right_children":[2,4,6,-1,-1,8,-1,10,12,-1,-1,14,16,-1,-1,-1,-1],"split_conditions":[5.476E3,7.9125E6,7.16E3,-2.6001816E5,-1.3653816E5,9.871946E6,2.4866952E5,9.422754E6,7.64E2,1.82652E3,2.87676E3,1.8467E7,7.477833E6,2.45178E3,-1.656E1,-2.43E2,-3.8679E3],"split_indices":[1,11,1,0,0,4,0,4,2,0,0,10,22,0,0,0,0],"split_type":[0,0,0,0,0,0,0,0,0,0,0,0,0,0,0,0,0],"sum_hessian":[4.36E2,1.8E2,2.56E2,5E0,1.75E2,5.6E1,2E2,2.1E1,3.5E1,5E0,1.6E1,1.1E1,2.4E1,6E0,5E0,9E0,1.5E1],"tree_param":{"num_deleted":"0","num_feature":"33","num_nodes":"17","size_leaf_vector":"1"}},{"base_weights":[9.879227E-2,-2.9796297E-2,7.980237E-1,2.7E-1,2.982065E-2,6.018868E-1,-7.1666664E-1,8.40625E-1,2.2272727E-1,-4.5000003E-3,-2.7461536E-2,4.5000003E-3,2.8777778E-2,-2.45E-2,1.7470587E-2],"categories":[],"categories_nodes":[],"categories_segments":[],"categories_sizes":[],"default_left":[0,0,0,0,0,0,0,0,0,0,0,0,0,0,0],"id":16,"left_children":[1,-1,3,5,-1,7,9,11,13,-1,-1,-1,-1,-1,-1],"loss_changes":[3.1688785E2,0E0,2.578859E1,2.3342186E1,0E0,4.5039883E0,1.7830772E0,2.3670025E0,8.675596E0,0E0,0E0,0E0,0E0,0E0,0E0],"parents":[2147483647,0,0,2,2,3,3,5,5,6,6,7,7,8,8],"right_children":[2,-1,4,6,-1,8,10,12,14,-1,-1,-1,-1,-1,-1],"split_conditions":[4.631E3,-1.3829202E5,7.768E3,5.536E3,2.3462442E5,9.859633E6,8.26E2,3.0036E7,9.877358E6,-1.21986E3,-9.89568E3,3.0188398E3,3.0793198E3,-5.3051996E2,2.11893E3],"split_indices":[0,0,0,0,0,4,2,9,4,0,0,0,0,0,0],"split_type":[0,0,0,0,0,0,0,0,0,0,0,0,0,0,0],"sum_hessian":[4.13E2,1.61E2,2.52E2,6.9E1,1.83E2,5.2E1,1.7E1,3.1E1,2.1E1,5E0,1.2E1,5E0,2.6E1,5E0,1.6E1],"tree_param":{"num_deleted":"0","num_feature":"33","num_nodes":"15","size_leaf_vector":"1"}},{"base_weights":[8.486997E-2,-2.9801205E-2,7.786822E-1,1.2153846E-1,2.9829895E-2,4.6595743E-1,-7.3157895E-1,-4.5000003E-3,5.452381E-1,-4.5000003E-3,-2.7642855E-2,1.9378379E-2,-4.5000003E-3],"categories":[],"categories_nodes":[],"categories_segments":[],"categories_sizes":[],"default_left":[0,0,0,0,0,0,0,0,0,0,0,0,0],"id":17,"left_children":[1,-1,3,5,-1,7,9,-1,11,-1,-1,-1,-1],"loss_changes":[3.1719766E2,0E0,3.6329163E1,1.9413263E1,0E0,2.4164839E0,1.8524809E0,0E0,3.0871572E0,0E0,0E0,0E0,0E0],"parents":[2147483647,0,0,2,2,3,3,5,5,6,6,8,8],"right_children":[2,-1,4,6,-1,8,10,-1,12,-1,-1,-1,-1],"split_conditions":[5.316E3,-1.3034826E5,7.768E3,5.536E3,2.3069069E5,1.23016864E-1,8.26E2,-2.088E1,1.9279E7,-1.82364E3,-9.2778E3,1.33383E3,-2.9922E2],"split_indices":[1,0,0,0,0,32,2,0,11,0,0,0,0],"split_type":[0,0,0,0,0,0,0,0,0,0,0,0,0],"sum_hessian":[4.22E2,1.65E2,2.57E2,6.4E1,1.93E2,4.6E1,1.8E1,5E0,4.1E1,5E0,1.3E1,3.6E1,5E0],"tree_param":{"num_deleted":"0","num_feature":"33","num_nodes":"13","size_leaf_vector":"1"}},{"base_weights":[9.9097066E-2,-2.9812498E-2,8.1679106E-1,2.9857144E-1,2.9834172E-2,6.8541664E-1,-5.173913E-1,3.45E-1,8.931034E-1,1.45E-2,-2.4833333E-2,2.225E-2,-6.3333334E-3,2.8624998E-2,1.45E-2],"categories":[],"categories_nodes":[],"categories_segments":[],"categories_sizes":[],"default_left":[0,0,0,0,0,0,0,0,0,0,0,0,0,0,0],"id":18,"left_children":[1,-1,3,5,-1,7,9,11,13,-1,-1,-1,-1,-1,-1],"loss_changes":[3.4825204E2,0E0,2.4250656E1,2.2467022E1,0E0,2.9616718E0,7.578599E0,4.6214447E0,1.2070274E-1,0E0,0E0,0E0,0E0,0E0,0E0],"parents":[2147483647,0,0,2,2,3,3,5,5,6,6,7,7,8,8],"right_children":[2,-1,4,6,-1,8,10,12,14,-1,-1,-1,-1,-1,-1],"split_conditions":[8.912099E6,-1.2646782E5,1.210981E7,1.0160643E7,2.209575E5,3.14935E7,1.2515828E-1,6.6421715E6,3.3982E7,1.8140399E3,-3.17664E3,2.9878198E3,-1.2146999E2,2.78622E3,1.22502E3],"split_indices":[4,0,4,4,0,8,32,14,8,0,0,0,0,0,0],"split_type":[0,0,0,0,0,0,0,0,0,0,0,0,0,0,0],"sum_hessian":[4.42E2,1.75E2,2.67E2,6.9E1,1.98E2,4.7E1,2.2E1,1.9E1,2.8E1,5E0,1.7E1,1.1E1,8E0,2.3E1,5E0],"tree_param":{"num_deleted":"0","num_feature":"33","num_nodes":"15","size_leaf_vector":"1"}},{"base_weights":[5.5710956E-2,-9.8228574E-1,7.6823527E-1,-2.9805882E-2,-1.45E-2,2.9819671E-2,1.9041096E-1,7.911765E-1,-3.225E-1,-4.5000003E-3,2.8862068E-2,-3.2142855E-2,-2.7461536E-2,-1.725E-2,1.04117645E-2],"categories":[],"categories_nodes":[],"categories_segments":[],"categories_sizes":[],"default_left":[0,0,0,0,0,0,0,0,0,0,0,0,0,0,0],"id":19,"left_children":[1,3,5,-1,-1,-1,7,9,11,-1,-1,13,-1,-1,-1],"loss_changes":[3.180207E2,3.538971E-1,3.295604E1,0E0,0E0,0E0,2.2796185E1,5.6940765E0,6.7617555E0,0E0,0E0,5.9862185E0,0E0,0E0,0E0],"parents":[2147483647,0,0,1,1,2,2,6,6,7,7,8,8,11,11],"right_children":[2,4,6,-1,-1,-1,8,10,12,-1,-1,14,-1,-1,-1],"split_conditions":[8.974247E6,4.504E3,1E0,-1.2567377E5,-4.39878E3,2.1339125E5,9.859633E6,3.00605E7,3.8955E7,-6.828E1,3.25368E3,7.091304E6,-9.78663E3,-8.5619995E1,1.5000599E3],"split_indices":[4,0,5,0,0,0,4,9,15,0,0,14,0,0,0],"split_type":[0,0,0,0,0,0,0,0,0,0,0,0,0,0,0],"sum_hessian":[4.28E2,1.74E2,2.54E2,1.69E2,5E0,1.82E2,7.2E1,3.3E1,3.9E1,5E0,2.8E1,2.7E1,1.2E1,1.1E1,1.6E1],"tree_param":{"num_deleted":"0","num_feature":"33","num_nodes":"15","size_leaf_vector":"1"}},{"base_weights":[1.4885321E-1,-9.8050314E-1,7.946043E-1,-2.9785713E-2,-1.45E-2,1.9577464E-1,2.9841345E-2,4.15E-1,-2.725E-2,7.15625E-1,6.551724E-2,7.25E-3,2.842857E-2,-1.47857135E-2,1.66875E-2],"categories":[],"categories_nodes":[],"categories_segments":[],"categories_sizes":[],"default_left":[0,0,0,0,0,0,0,0,0,0,0,0,0,0,0],"id":20,"left_children":[1,3,5,-1,-1,7,-1,9,-1,11,13,-1,-1,-1,-1],"loss_changes":[3.1872797E2,3.4909058E-1,3.2998993E1,0E0,0E0,1.7513065E1,0E0,6.178795E0,0E0,3.170641E0,8.226856E0,0E0,0E0,0E0,0E0],"parents":[2147483647,0,0,1,1,2,2,5,5,7,7,9,9,10,10],"right_children":[2,4,6,-1,-1,8,-1,10,-1,12,14,-1,-1,-1,-1],"split_conditions":[5.279E3,4.504E3,1.210981E7,-1.28158555E5,-1.023681E4,8.82E2,2.081595E5,9.859633E6,-9.2526E3,3.14935E7,7.091304E6,2.24244E3,3.04878E3,-8.304E1,2.30004E3],"split_indices":[1,0,4,0,0,2,0,4,0,8,14,0,0,0,0],"split_type":[0,0,0,0,0,0,0,0,0,0,0,0,0,0,0],"sum_hessian":[4.35E2,1.58E2,2.77E2,1.53E2,5E0,7E1,2.07E2,5.9E1,1.1E1,3.1E1,2.8E1,1.1E1,2E1,1.3E1,1.5E1],"tree_param":{"num_deleted":"0","num_feature":"33","num_nodes":"15","size_leaf_vector":"1"}},{"base_weights":[8.800905E-2,-9.7118646E-1,7.9285717E-1,-2.980814E-2,-4.5000003E-3,1.8970588E-1,2.9834172E-2,6.552632E-1,-3.8387096E-1,8.241379E-1,2.7E-3,3E-1,-2.5105262E-2,4.5000003E-3,2.8624998E-2,2.45E-2,-3.3749999E-3],"categories":[],"categories_nodes":[],"categories_segments":[],"categories_sizes":[],"default_left":[0,0,0,0,0,0,0,0,0,0,0,0,0,0,0,0,0],"id":21,"left_children":[1,3,5,-1,-1,7,-1,9,11,13,-1,15,-1,-1,-1,-1,-1],"loss_changes":[3.3073697E2,2.9950867E0,3.203972E1,0E0,0E0,1.843691E1,0E0,3.4618435E0,9.907724E0,2.288519E0,0E0,2.9329166E0,0E0,0E0,0E0,0E0,0E0],"parents":[2147483647,0,0,1,1,2,2,5,5,7,7,8,8,9,9,11,11],"right_children":[2,4,6,-1,-1,8,-1,10,12,14,-1,16,-1,-1,-1,-1,-1],"split_conditions":[9.0346E6,8.731026E6,7.768E3,-1.2486519E5,-1.69824E3,5.133E3,2.093247E5,1.8692E7,1.2865728E-1,3.0274E7,6.1086E2,1.75015E7,-2.12232E3,2.17518E3,2.6251199E3,1.64562E3,-5.3399997E0],"split_indices":[4,4,0,0,0,0,0,11,32,8,0,20,0,0,0,0,0],"split_type":[0,0,0,0,0,0,0,0,0,0,0,0,0,0,0,0,0],"sum_hessian":[4.41E2,1.76E2,2.65E2,1.71E2,5E0,6.7E1,1.98E2,3.7E1,3E1,2.8E1,9E0,1.2E1,1.8E1,5E0,2.3E1,5E0,7E0],"tree_param":{"num_deleted":"0","num_feature":"33","num_nodes":"17","size_leaf_vector":"1"}},{"base_weights":[8.4074944E-2,-2.98E-2,7.6007605E-1,2.9827224E-2,1.3561644E-1,8.40625E-1,-4.0238094E-1,4.5000003E-3,2.8777778E-2,1E-1,-7.875E-1,1.6090909E-2,-1.3E-2,-4.5000003E-3,-2.8263157E-2],"categories":[],"categories_nodes":[],"categories_segments":[],"categories_sizes":[],"default_left":[0,0,0,0,0,0,0,0,0,0,0,0,0,0,0],"id":22,"left_children":[1,-1,3,-1,5,7,9,-1,-1,11,13,-1,-1,-1,-1],"loss_changes":[3.1172827E2,0E0,3.8209747E1,0E0,2.8070446E1,2.3670025E0,8.273512E0,0E0,0E0,4.6645455E0,2.114934E0,0E0,0E0,0E0,0E0],"parents":[2147483647,0,0,2,2,4,4,5,5,6,6,9,9,10,10],"right_children":[2,-1,4,-1,6,8,10,-1,-1,12,14,-1,-1,-1,-1],"split_conditions":[8.974247E6,-1.15377836E5,1E0,1.9540247E5,9.859633E6,3.00605E7,1.2865728E-1,2.66814E3,3.04026E3,3.943074E-1,1.69315E7,2.18901E3,-4.4871E2,-7.674E1,-2.5218298E3],"split_indices":[4,0,5,0,4,9,32,0,0,31,16,0,0,0,0],"split_type":[0,0,0,0,0,0,0,0,0,0,0,0,0,0,0],"sum_hessian":[4.26E2,1.64E2,2.62E2,1.9E2,7.2E1,3.1E1,4.1E1,5E0,2.6E1,1.8E1,2.3E1,1E1,8E0,5E0,1.8E1],"tree_param":{"num_deleted":"0","num_feature":"33","num_nodes":"15","size_leaf_vector":"1"}},{"base_weights":[1.261851E-1,-2.979878E-2,7.817857E-1,2.45679E-1,2.9834999E-2,7.292683E-1,-2.4146341E-1,-8.142858E-3,9.114286E-1,2.2272727E-1,-7.45E-1,2.89E-2,1.45E-2,1.66875E-2,-1.6714286E-2,-2.7642855E-2,-8.142858E-3],"categories":[],"categories_nodes":[],"categories_segments":[],"categories_sizes":[],"default_left":[0,0,0,0,0,0,0,0,0,0,0,0,0,0,0,0,0],"id":23,"left_children":[1,-1,3,5,-1,7,9,-1,11,13,15,-1,-1,-1,-1,-1,-1],"loss_changes":[3.258865E2,0E0,3.156218E1,1.9306599E1,0E0,7.785164E0,9.801376E0,0E0,1.6742897E-1,6.032118E0,1.3016434E0,0E0,0E0,0E0,0E0,0E0,0E0],"parents":[2147483647,0,0,2,2,3,3,5,5,6,6,8,8,9,9,10,10],"right_children":[2,-1,4,6,-1,8,10,-1,12,14,16,-1,-1,-1,-1,-1,-1],"split_conditions":[5.126E3,-1.187265E5,7.768E3,9.859633E6,1.9478292E5,3.00605E7,7.93E2,-3.3747E2,3.3411E7,1.2911436E-1,6.12E3,2.9028599E3,8.0604E2,2.22792E3,-6.5645996E2,-1.5951E3,-1.12695E4],"split_indices":[1,0,0,4,0,9,2,0,9,32,0,0,0,0,0,0,0],"split_type":[0,0,0,0,0,0,0,0,0,0,0,0,0,0,0,0,0],"sum_hessian":[4.42E2,1.63E2,2.79E2,8E1,1.99E2,4E1,4E1,6E0,3.4E1,2.1E1,1.9E1,2.9E1,5E0,1.5E1,6E0,1.3E1,6E0],"tree_param":{"num_deleted":"0","num_feature":"33","num_nodes":"17","size_leaf_vector":"1"}},{"base_weights":[1.3778281E-1,-2.9796297E-2,7.896797E-1,2.792683E-1,2.9834999E-2,7.9318184E-1,-3.0512822E-1,6.3333334E-3,9.138889E-1,1.45E-1,-7.45E-1,1.45E-2,2.8935483E-2,-1.9666666E-2,2.225E-2,-4.5000003E-3,-2.78E-2],"categories":[],"categories_nodes":[],"categories_segments":[],"categories_sizes":[],"default_left":[0,0,0,0,0,0,0,0,0,0,0,0,0,0,0,0,0],"id":24,"left_children":[1,-1,3,5,-1,7,9,-1,11,13,15,-1,-1,-1,-1,-1,-1],"loss_changes":[3.2664645E2,0E0,2.897139E1,2.4917828E1,0E0,2.7860126E0,7.8899746E0,0E0,1.7375374E-1,1.0048111E1,1.9151669E0,0E0,0E0,0E0,0E0,0E0,0E0],"parents":[2147483647,0,0,2,2,3,3,5,5,6,6,8,8,9,9,10,10],"right_children":[2,-1,4,6,-1,8,10,-1,12,14,16,-1,-1,-1,-1,-1,-1],"split_conditions":[8.58045E6,-1.0865472E5,7.768E3,9.859633E6,1.9013945E5,3.8231114E-1,7.99E2,1.9838999E3,1.7131E7,7.036511E6,3.3115E7,8.3939996E2,3.4353298E3,-1.16009995E2,3.1903198E3,-2.658E1,-4.81263E3],"split_indices":[4,0,0,4,0,31,2,0,7,14,8,0,0,0,0,0,0],"split_type":[0,0,0,0,0,0,0,0,0,0,0,0,0,0,0,0,0],"sum_hessian":[4.41E2,1.61E2,2.8E2,8.1E1,1.99E2,4.3E1,3.8E1,8E0,3.5E1,1.9E1,1.9E1,5E0,3E1,8E0,1.1E1,5E0,1.4E1],"tree_param":{"num_deleted":"0","num_feature":"33","num_nodes":"17","size_leaf_vector":"1"}},{"base_weights":[1.4808989E-1,-2.9787097E-2,7.5567013E-1,1.6352941E-1,2.984058E-2,5.862745E-1,-4.542857E-1,-1.7272727E-1,7.7804875E-1,6.3333334E-3,-6.62963E-1,4.5000003E-3,-1.45E-2,4.5000003E-3,2.575E-2,-1.05E-2,-2.7642855E-2],"categories":[],"categories_nodes":[],"categories_segments":[],"categories_sizes":[],"default_left":[0,0,0,0,0,0,0,0,0,0,0,0,0,0,0,0,0],"id":25,"left_children":[1,-1,3,5,-1,7,9,11,13,-1,15,-1,-1,-1,-1,-1,-1],"loss_changes":[3.0922055E2,0E0,4.090703E1,2.247969E1,0E0,7.61833E0,5.045005E0,1.2084849E0,1.8377438E0,0E0,1.7343922E0,0E0,0E0,0E0,0E0,0E0,0E0],"parents":[2147483647,0,0,2,2,3,3,5,5,6,6,7,7,8,8,10,10],"right_children":[2,-1,4,6,-1,8,10,12,14,-1,16,-1,-1,-1,-1,-1,-1],"split_conditions":[4.298E3,-1.0454007E5,8.806E3,5.133E3,1.8428525E5,3.8129675E-1,1.75355E7,4.631E3,3.235E7,2.12328E3,1.2865728E-1,1.70298E3,-2.8122E2,4.5149998E1,2.06538E3,-2.8638E2,-2.17866E3],"split_indices":[0,0,1,0,0,31,16,0,19,0,32,0,0,0,0,0,0],"split_type":[0,0,0,0,0,0,0,0,0,0,0,0,0,0,0,0,0],"sum_hessian":[4.44E2,1.54E2,2.9E2,8.4E1,2.06E2,5E1,3.4E1,1E1,4E1,8E0,2.6E1,5E0,5E0,5E0,3.5E1,1.3E1,1.3E1],"tree_param":{"num_deleted":"0","num_feature":"33","num_nodes":"17","size_leaf_vector":"1"}},{"base_weights":[1.5433255E-1,-2.9782895E-2,7.8586954E-1,2.5189874E-1,2.9833332E-2,4.9076924E-1,-2.38E-2,6.510204E-1,-0E0,9.4090905E-3,2.6678571E-2,2.45E-2,-1.225E-2],"categories":[],"categories_nodes":[],"categories_segments":[],"categories_sizes":[],"default_left":[0,0,0,0,0,0,0,0,0,0,0,0,0],"id":26,"left_children":[1,-1,3,5,-1,7,-1,9,11,-1,-1,-1,-1],"loss_changes":[3.1009256E2,0E0,3.0363785E1,2.0083422E1,0E0,5.112013E0,0E0,3.5397549E0,6.0024996E0,0E0,0E0,0E0,0E0],"parents":[2147483647,0,0,2,2,3,3,5,5,7,7,8,8],"right_children":[2,-1,4,6,-1,8,-1,10,12,-1,-1,-1,-1],"split_conditions":[4.931E3,-1.07700266E5,8.806E3,3.838E7,1.7527667E5,1.82415E7,-8.42643E3,6.5917455E6,6.337822E6,1.37688E3,2.09469E3,2.74314E3,-2.754E2],"split_indices":[1,0,1,15,0,16,0,18,22,0,0,0,0],"split_type":[0,0,0,0,0,0,0,0,0,0,0,0,0],"sum_hessian":[4.26E2,1.51E2,2.75E2,7.8E1,1.97E2,6.4E1,1.4E1,4.8E1,1.6E1,2.1E1,2.7E1,5E0,1.1E1],"tree_param":{"num_deleted":"0","num_feature":"33","num_nodes":"13","size_leaf_vector":"1"}},{"base_weights":[1.5311112E-1,-2.979503E-2,7.8931034E-1,2.9839024E-2,2.895349E-1,7.2545457E-1,-4.65625E-1,8.3488375E-1,3E-1,1.4615385E-1,-8.45E-1,2.89E-2,1.47857135E-2,-1.45E-2,2.5875E-2,-1.0875E-2,2.45E-2,-2.78E-2,-1.45E-2],"categories":[],"categories_nodes":[],"categories_segments":[],"categories_sizes":[],"default_left":[0,0,0,0,0,0,0,0,0,0,0,0,0,0,0,0,0,0,0],"id":27,"left_children":[1,-1,3,-1,5,7,9,11,13,15,17,-1,-1,-1,-1,-1,-1,-1,-1],"loss_changes":[3.289313E2,0E0,2.9342178E1,0E0,2.867403E1,2.1966896E0,7.620379E0,1.2687225E0,6.1829166E0,4.775224E0,1.8339157E-3,0E0,0E0,0E0,0E0,0E0,0E0,0E0,0E0],"parents":[2147483647,0,0,2,2,4,4,5,5,6,6,7,7,8,8,9,9,10,10],"right_children":[2,-1,4,-1,6,8,10,12,14,16,18,-1,-1,-1,-1,-1,-1,-1,-1],"split_conditions":[8.50821E6,-1.0500357E5,5E0,1.6994339E5,5.137E3,1.4039074E-1,7.99E2,2.2E1,4.725E3,6.032E3,5.895E3,2.16174E3,3.05397E3,-2.6712E2,1.3356E3,-1.0956E2,3.44124E3,-2.99871E3,-1.8605399E3],"split_indices":[4,0,25,0,0,32,2,29,0,1,0,0,0,0,0,0,0,0,0],"split_type":[0,0,0,0,0,0,0,0,0,0,0,0,0,0,0,0,0,0,0],"sum_hessian":[4.49E2,1.6E2,2.89E2,2.04E2,8.5E1,5.4E1,3.1E1,4.2E1,1.2E1,1.2E1,1.9E1,2.9E1,1.3E1,5E0,7E0,7E0,5E0,1.4E1,5E0],"tree_param":{"num_deleted":"0","num_feature":"33","num_nodes":"19","size_leaf_vector":"1"}},{"base_weights":[1.13238774E-1,-9.68125E-1,7.685606E-1,-2.9787097E-2,-4.5000003E-3,2.1666667E-1,2.9823529E-2,6.9534886E-1,-3.5833332E-1,2.7222222E-1,2.8730769E-2,1.8125E-1,-7.5714284E-1,1.725E-2,-8.142858E-3,2.45E-2,-5.1818183E-3,-4.5000003E-3,-2.7937498E-2],"categories":[],"categories_nodes":[],"categories_segments":[],"categories_sizes":[],"default_left":[0,0,0,0,0,0,0,0,0,0,0,0,0,0,0,0,0,0,0],"id":28,"left_children":[1,3,5,-1,-1,7,-1,9,11,13,-1,15,17,-1,-1,-1,-1,-1,-1],"loss_changes":[3.0047937E2,2.9802551E0,3.2527176E1,0E0,0E0,2.1751762E1,0E0,4.3894978E0,7.9416966E0,3.1493254E0,0E0,3.8042233E0,1.9720535E0,0E0,0E0,0E0,0E0,0E0,0E0],"parents":[2147483647,0,0,1,1,2,2,5,5,7,7,8,8,9,9,11,11,12,12],"right_children":[2,4,6,-1,-1,8,-1,10,12,14,-1,16,18,-1,-1,-1,-1,-1,-1],"split_conditions":[1E0,8.42039E6,6.23E3,-1.0319775E5,-3.27264E3,9.841685E6,1.6318758E5,3.14935E7,1.2909767E-1,3.26725E7,2.52114E3,1.78465E7,1.72705E7,2.84103E3,-3.3237E2,3.33798E3,-1.7570999E2,-1.06259995E2,-1.49232E3],"split_indices":[6,4,0,0,0,4,0,8,32,15,0,16,16,0,0,0,0,0,0],"split_type":[0,0,0,0,0,0,0,0,0,0,0,0,0,0,0,0,0,0,0],"sum_hessian":[4.22E2,1.59E2,2.63E2,1.54E2,5E0,7.7E1,1.86E2,4.2E1,3.5E1,1.7E1,2.5E1,1.5E1,2E1,1.1E1,6E0,5E0,1E1,5E0,1.5E1],"tree_param":{"num_deleted":"0","num_feature":"33","num_nodes":"19","size_leaf_vector":"1"}},{"base_weights":[1.7744875E-1,-9.7960526E-1,7.878472E-1,-2.9773971E-2,-1.6714286E-2,2.3625E-1,2.9842105E-2,6.9534886E-1,-2.868421E-1,2.8730769E-2,2.7222222E-1,1.8571429E-1,-2.4833333E-2,2.07E-2,-6.3333334E-3,-1.47E-2,2.225E-2],"categories":[],"categories_nodes":[],"categories_segments":[],"categories_sizes":[],"default_left":[0,0,0,0,0,0,0,0,0,0,0,0,0,0,0,0,0],"id":29,"left_children":[1,3,5,-1,-1,7,-1,9,11,-1,13,15,-1,-1,-1,-1,-1],"loss_changes":[3.108025E2,1.1790466E-1,3.2508377E1,0E0,0E0,1.9452385E1,0E0,4.3894978E0,9.931597E0,0E0,3.8282223E0,8.277547E0,0E0,0E0,0E0,0E0,0E0],"parents":[2147483647,0,0,1,1,2,2,5,5,7,7,8,8,10,10,11,11],"right_children":[2,4,6,-1,-1,8,-1,10,12,-1,14,16,-1,-1,-1,-1,-1],"split_conditions":[1E0,4.197E3,8.806E3,-9.9291805E4,-4.502265E3,9.859633E6,1.6479444E5,1.3263095E1,7.99E2,2.75364E3,3E1,6.9638075E6,-2.85822E3,1.52148E3,-3.0828E2,-1.03079994E2,2.8048198E3],"split_indices":[6,0,1,0,0,4,0,3,2,0,27,14,0,0,0,0,0],"split_type":[0,0,0,0,0,0,0,0,0,0,0,0,0,0,0,0,0],"sum_hessian":[4.38E2,1.51E2,2.87E2,1.45E2,6E0,7.9E1,2.08E2,4.2E1,3.7E1,2.5E1,1.7E1,2E1,1.7E1,9E0,8E0,9E0,1.1E1],"tree_param":{"num_deleted":"0","num_feature":"33","num_nodes":"17","size_leaf_vector":"1"}},{"base_weights":[1.585034E-1,-9.6644735E-1,7.4793106E-1,-2.9773971E-2,-8.142858E-3,1.4E-1,2.9839804E-2,4.9814814E-1,-4.65625E-1,-6.428571E-2,6.804878E-1,-5E-2,-2.78E-2,1.3E-2,-2.45E-2,2.3735294E-2,3.3749999E-3,-1.6714286E-2,7.25E-3],"categories":[],"categories_nodes":[],"categories_segments":[],"categories_sizes":[],"default_left":[0,0,0,0,0,0,0,0,0,0,0,0,0,0,0,0,0,0,0],"id":30,"left_children":[1,3,5,-1,-1,7,-1,9,11,13,15,17,-1,-1,-1,-1,-1,-1,-1],"loss_changes":[2.9311798E2,2.35289E0,4.3245636E1,0E0,0E0,1.8671997E1,0E0,5.643282E0,5.9878545E0,5.6338096E0,2.3982868E0,2.8286903E0,0E0,0E0,0E0,0E0,0E0,0E0,0E0],"parents":[2147483647,0,0,1,1,2,2,5,5,7,7,8,8,9,9,10,10,11,11],"right_children":[2,4,6,-1,-1,8,-1,10,12,14,16,18,-1,-1,-1,-1,-1,-1,-1],"split_conditions":[1E0,8.42039E6,7.768E3,-9.631305E4,-3.5117249E3,5.137E3,1.5203561E5,3.8129675E-1,1.2922497E-1,8E0,3.48955E7,6.032E3,-2.77827E3,1.87782E3,-3.8646E2,2.5497E3,1.9199999E1,-1.4073E2,2.9069998E2],"split_indices":[6,4,0,0,0,0,0,31,32,26,23,1,0,0,0,0,0,0,0],"split_type":[0,0,0,0,0,0,0,0,0,0,0,0,0,0,0,0,0,0,0],"sum_hessian":[4.4E2,1.51E2,2.89E2,1.45E2,6E0,8.4E1,2.05E2,5.3E1,3.1E1,1.3E1,4E1,1.7E1,1.4E1,8E0,5E0,3.3E1,7E0,6E0,1.1E1],"tree_param":{"num_deleted":"0","num_feature":"33","num_nodes":"19","size_leaf_vector":"1"}},{"base_weights":[1.3778281E-1,-9.55625E-1,7.558304E-1,-2.9784312E-2,-3.3749999E-3,1.6746987E-1,2.983582E-2,4.509434E-1,-3.1935483E-1,2.2571428E-1,2.5105262E-2,1.7272727E-1,-5.6666666E-1,1.2310345E-2,-1.6714286E-2,-1.45E-2,2.45E-2,-9.000001E-3,-2.6333332E-2],"categories":[],"categories_nodes":[],"categories_segments":[],"categories_sizes":[],"default_left":[0,0,0,0,0,0,0,0,0,0,0,0,0,0,0,0,0,0,0],"id":31,"left_children":[1,3,5,-1,-1,7,-1,9,11,13,-1,15,17,-1,-1,-1,-1,-1,-1],"loss_changes":[2.993962E2,4.794098E0,3.9461746E1,0E0,0E0,1.161133E1,0E0,4.311384E0,3.909902E0,5.2728176E0,0E0,5.0751514E0,1.3611112E0,0E0,0E0,0E0,0E0,0E0,0E0],"parents":[2147483647,0,0,1,1,2,2,5,5,7,7,8,8,9,9,11,11,12,12],"right_children":[2,4,6,-1,-1,8,-1,10,12,14,-1,16,18,-1,-1,-1,-1,-1,-1],"split_conditions":[1E0,8.144587E6,7.16E3,-9.423366E4,-2.93403E3,5.137E3,1.4744453E5,3.0925E7,7.99E2,1.8504E7,2.47323E3,5.951E3,3.21505E7,1.56312E3,-2.2887E2,-1.773E2,3.4786199E3,-5.9064E2,-7.0496396E3],"split_indices":[6,4,1,0,0,0,0,7,2,10,0,1,7,0,0,0,0,0,0],"split_type":[0,0,0,0,0,0,0,0,0,0,0,0,0,0,0,0,0,0,0],"sum_hessian":[4.41E2,1.59E2,2.82E2,1.52E2,7E0,8.2E1,2E2,5.2E1,3E1,3.4E1,1.8E1,1E1,2E1,2.8E1,6E0,5E0,5E0,1.2E1,8E0],"tree_param":{"num_deleted":"0","num_feature":"33","num_nodes":"19","size_leaf_vector":"1"}},{"base_weights":[1.396789E-1,-9.434783E-1,7.713768E-1,-2.9781457E-2,-1.7272727E-1,2.9834172E-2,1.9102564E-1,-2.45E-2,1.45E-2,4.3898305E-1,-5.45E-1,5.470588E-1,-6.3333334E-3,4.5000003E-3,-2.38E-2,2.4724137E-2,5.0869565E-3],"categories":[],"categories_nodes":[],"categories_segments":[],"categories_sizes":[],"default_left":[0,0,0,0,0,0,0,0,0,0,0,0,0,0,0,0,0],"id":32,"left_children":[1,3,5,-1,7,-1,9,-1,-1,11,13,15,-1,-1,-1,-1,-1],"loss_changes":[2.9903403E2,5.8218536E0,3.542624E1,0E0,5.0751514E0,0E0,1.446388E1,0E0,0E0,4.2943897E0,3.6351676E0,5.0952616E0,0E0,0E0,0E0,0E0,0E0],"parents":[2147483647,0,0,1,1,2,2,4,4,6,6,9,9,10,10,11,11],"right_children":[2,4,6,-1,8,-1,10,-1,-1,12,14,16,-1,-1,-1,-1,-1],"split_conditions":[1E0,8.118473E6,1E0,-9.140664E4,8.4995E6,1.4328372E5,8.25E2,-3.98223E3,3.51402E3,1.3642858E1,1.7744E7,9.859633E6,-3.8309998E1,1.1056799E3,-4.03416E3,2.50179E3,2.442E1],"split_indices":[6,4,5,0,24,0,2,0,0,3,12,4,0,0,0,0,0],"split_type":[0,0,0,0,0,0,0,0,0,0,0,0,0,0,0,0,0],"sum_hessian":[4.35E2,1.6E2,2.75E2,1.5E2,1E1,1.98E2,7.7E1,5E0,5E0,5.8E1,1.9E1,5E1,8E0,5E0,1.4E1,2.8E1,2.2E1],"tree_param":{"num_deleted":"0","num_feature":"33","num_nodes":"17","size_leaf_vector":"1"}},{"base_weights":[1.5968469E-1,-9.5419353E-1,7.5482756E-1,-2.9777026E-2,-3.3749999E-3,2.9836632E-2,2.011236E-1,3.8219178E-1,-5.8235294E-1,4.828125E-1,-8.699999E-3,4.5000003E-3,-2.725E-2,2.1193547E-2,7.852941E-3],"categories":[],"categories_nodes":[],"categories_segments":[],"categories_sizes":[],"default_left":[0,0,0,0,0,0,0,0,0,0,0,0,0,0,0],"id":33,"left_children":[1,3,5,-1,-1,-1,7,9,11,13,-1,-1,-1,-1,-1],"loss_changes":[2.9503534E2,4.784195E0,3.817433E1,0E0,0E0,0E0,1.2828331E1,5.096755E0,4.2705393E0,2.8820887E0,0E0,0E0,0E0,0E0,0E0],"parents":[2147483647,0,0,1,1,2,2,6,6,7,7,8,8,9,9],"right_children":[2,4,6,-1,-1,-1,8,10,12,14,-1,-1,-1,-1,-1],"split_conditions":[1E0,8.065342E6,1E0,-9.103443E4,-2.8040999E3,1.409127E5,8.25E2,1.3642858E1,2.132E7,3.889982E-1,-4.818E1,1.0728E2,-7.68906E3,1.99044E3,7.44E2],"split_indices":[6,4,5,0,0,0,2,3,7,31,0,0,0,0,0],"split_type":[0,0,0,0,0,0,0,0,0,0,0,0,0,0,0],"sum_hessian":[4.43E2,1.54E2,2.89E2,1.47E2,7E0,2.01E2,8.8E1,7.2E1,1.6E1,6.3E1,9E0,5E0,1.1E1,3E1,3.3E1],"tree_param":{"num_deleted":"0","num_feature":"33","num_nodes":"15","size_leaf_vector":"1"}},{"base_weights":[1.7637232E-1,-2.9759122E-2,7.416961E-1,2.0543478E-1,2.9828126E-2,4.8166665E-1,-3E-1,5.942308E-1,-6.3333334E-3,1.1176471E-1,-7E-1,5.1818183E-3,2.0642856E-2,1.8375E-2,-8.699999E-3,-2.725E-2,-4.5000003E-3],"categories":[],"categories_nodes":[],"categories_segments":[],"categories_sizes":[],"default_left":[0,0,0,0,0,0,0,0,0,0,0,0,0,0,0,0,0],"id":34,"left_children":[1,-1,3,5,-1,7,9,11,-1,13,15,-1,-1,-1,-1,-1,-1],"loss_changes":[2.7745694E2,0E0,3.800699E1,1.300745E1,0E0,4.842675E0,5.5723524E0,1.8524036E0,0E0,3.6298969E0,1.7058334E0,0E0,0E0,0E0,0E0,0E0,0E0],"parents":[2147483647,0,0,2,2,3,3,5,5,6,6,7,7,9,9,10,10],"right_children":[2,-1,4,6,-1,8,10,12,-1,14,16,-1,-1,-1,-1,-1,-1],"split_conditions":[4.105E3,-8.593341E4,7.768E3,3.48955E7,1.3446534E5,2.8892358E7,1.2865728E-1,3.818403E-1,-7.0409996E1,7.650387E6,3.29905E7,8.50845E2,1.8870599E3,2.49672E3,-3.77865E3,-2.3313E3,-2.12592E3],"split_indices":[0,0,0,23,0,13,32,31,0,22,7,0,0,0,0,0,0],"split_type":[0,0,0,0,0,0,0,0,0,0,0,0,0,0,0,0,0],"sum_hessian":[4.18E2,1.36E2,2.82E2,9.1E1,1.91E2,5.9E1,3.2E1,5.1E1,8E0,1.6E1,1.6E1,1E1,4.1E1,7E0,9E0,1.1E1,5E0],"tree_param":{"num_deleted":"0","num_feature":"33","num_nodes":"17","size_leaf_vector":"1"}},{"base_weights":[1.6013363E-1,-2.9778522E-2,7.305648E-1,1.7244898E-1,2.9838236E-2,-4.9545455E-1,3.6233765E-1,8.142858E-3,-2.41875E-2,6.4375E-1,-9.6666664E-2,2.3651162E-2,-1.45E-2,-8.625E-3,1.6714286E-2],"categories":[],"categories_nodes":[],"categories_segments":[],"categories_sizes":[],"default_left":[0,0,0,0,0,0,0,0,0,0,0,0,0,0,0],"id":35,"left_children":[1,-1,3,5,-1,7,9,-1,-1,11,13,-1,-1,-1,-1],"loss_changes":[2.959457E2,0E0,4.4069122E1,1.2595287E1,0E0,5.5158854E0,1.0062986E1,0E0,0E0,8.235605E0,3.8762739E0,0E0,0E0,0E0,0E0],"parents":[2147483647,0,0,2,2,3,3,5,5,6,6,9,9,10,10],"right_children":[2,-1,4,6,-1,8,10,-1,-1,12,14,-1,-1,-1,-1],"split_conditions":[7.959367E6,-9.8032914E4,8.806E3,3.8231114E-1,1.3049136E5,1.6E1,5.874E3,1.4205E3,-3.51717E3,1.90245E7,2.1E1,2.006265E3,-2.65005E3,-3.5646E2,9.51E2],"split_indices":[4,0,1,31,0,27,1,0,0,12,29,0,0,0,0],"split_type":[0,0,0,0,0,0,0,0,0,0,0,0,0,0,0],"sum_hessian":[4.48E2,1.48E2,3E2,9.7E1,2.03E2,2.1E1,7.6E1,6E0,1.5E1,4.7E1,2.9E1,4.2E1,5E0,2.3E1,6E0],"tree_param":{"num_deleted":"0","num_feature":"33","num_nodes":"15","size_leaf_vector":"1"}},{"base_weights":[1.9383562E-1,-9.7847223E-1,7.657627E-1,-2.976259E-2,-1.45E-2,2.726316E-1,2.983582E-2,4.5694444E-1,-2.875E-1,-8.699999E-3,5.6984127E-1,1.2666667E-1,-2.67E-2,2.6678571E-2,9.0833325E-3,-8.699999E-3,2.45E-2],"categories":[],"categories_nodes":[],"categories_segments":[],"categories_sizes":[],"default_left":[0,0,0,0,0,0,0,0,0,0,0,0,0,0,0,0,0],"id":36,"left_children":[1,3,5,-1,-1,7,-1,9,11,-1,13,15,-1,-1,-1,-1,-1],"loss_changes":[2.943959E2,3.4362793E-1,3.2881393E1,0E0,0E0,9.956066E0,0E0,6.2648287E0,6.177917E0,0E0,4.986191E0,4.6019998E0,0E0,0E0,0E0,0E0,0E0],"parents":[2147483647,0,0,1,1,2,2,5,5,7,7,8,8,10,10,11,11],"right_children":[2,4,6,-1,-1,8,-1,10,12,-1,14,16,-1,-1,-1,-1,-1],"split_conditions":[4.674E3,7.959367E6,8.806E3,-9.990693E4,-4.12356E3,2.869219E7,1.2677909E5,3.8231114E-1,1.2931034E-1,-8.2589996E2,3.889982E-1,1.2622392E-1,-4.95912E3,2.27304E3,6.0486E2,-3.429E2,4.7087997E2],"split_indices":[1,4,1,0,0,21,0,31,32,0,31,32,0,0,0,0,0],"split_type":[0,0,0,0,0,0,0,0,0,0,0,0,0,0,0,0,0],"sum_hessian":[4.37E2,1.43E2,2.94E2,1.38E2,5E0,9.4E1,2E2,7.1E1,2.3E1,9E0,6.2E1,1.4E1,9E0,2.7E1,3.5E1,9E0,5E0],"tree_param":{"num_deleted":"0","num_feature":"33","num_nodes":"17","size_leaf_vector":"1"}},{"base_weights":[1.7718893E-1,-9.7847223E-1,7.4879724E-1,-2.976259E-2,-1.45E-2,2.3052631E-1,2.9832486E-2,4.7E-1,-4.1923076E-1,5.6984127E-1,-1.0875E-2,-2.725E-2,-0E0,2.2500001E-3,2.0134615E-2,1.3E-2,-1.6714286E-2],"categories":[],"categories_nodes":[],"categories_segments":[],"categories_sizes":[],"default_left":[0,0,0,0,0,0,0,0,0,0,0,0,0,0,0,0,0],"id":37,"left_children":[1,3,5,-1,-1,7,-1,9,11,13,-1,-1,15,-1,-1,-1,-1],"loss_changes":[2.8740384E2,3.4362793E-1,3.6691742E1,0E0,0E0,1.4984089E1,0E0,6.0455523E0,5.331218E0,3.0334663E0,0E0,0E0,3.862857E0,0E0,0E0,0E0,0E0],"parents":[2147483647,0,0,1,1,2,2,5,5,7,7,8,8,9,9,12,12],"right_children":[2,4,6,-1,-1,8,-1,10,12,14,-1,-1,16,-1,-1,-1,-1],"split_conditions":[4.054E3,3.999E3,7.768E3,-9.993222E4,-2.30688E3,1.0160643E7,1.27633195E5,2.0095E7,5E0,3.8129675E-1,-2.63874E3,-6.83682E3,1.3173809E1,2.3568E2,2.1350999E3,7.56E2,-4.62105E3],"split_indices":[0,0,0,0,0,4,0,12,26,31,0,0,3,0,0,0,0],"split_type":[0,0,0,0,0,0,0,0,0,0,0,0,0,0,0,0,0],"sum_hessian":[4.33E2,1.43E2,2.9E2,1.38E2,5E0,9.4E1,1.96E2,6.9E1,2.5E1,6.2E1,7E0,1.1E1,1.4E1,1.1E1,5.1E1,8E0,6E0],"tree_param":{"num_deleted":"0","num_feature":"33","num_nodes":"17","size_leaf_vector":"1"}},{"base_weights":[1.4426605E-1,-2.9772414E-2,7.0856166E-1,8.494624E-2,2.9834999E-2,2.9701492E-1,-4.4074073E-1,-3.0625E-1,4.7884616E-1,-2.38E-2,-0E0,-2.07E-2,8.142858E-3,1.8951219E-2,-2.2500001E-3,1.0875E-2,-1.45E-2],"categories":[],"categories_nodes":[],"categories_segments":[],"categories_sizes":[],"default_left":[0,0,0,0,0,0,0,0,0,0,0,0,0,0,0,0,0],"id":38,"left_children":[1,-1,3,5,-1,7,9,11,13,-1,15,-1,-1,-1,-1,-1,-1],"loss_changes":[2.803354E2,0E0,5.1875748E1,1.0484338E1,0E0,7.5132966E0,4.1958523E0,3.7760892E0,4.5054493E0,0E0,2.4529166E0,0E0,0E0,0E0,0E0,0E0,0E0],"parents":[2147483647,0,0,2,2,3,3,5,5,6,6,7,7,8,8,10,10],"right_children":[2,-1,4,6,-1,8,10,12,14,-1,16,-1,-1,-1,-1,-1,-1],"split_conditions":[7.845025E6,-8.937426E4,7.768E3,5.137E3,1.2531918E5,3.8231114E-1,1.9E1,2.98295E7,7.56E2,-3.20169E3,5.791E3,-1.0720499E3,1.3956E3,1.650315E3,-7.56E0,1.7907E3,-1.40286E3],"split_indices":[4,0,0,0,0,31,27,8,2,0,0,0,0,0,0,0,0],"split_type":[0,0,0,0,0,0,0,0,0,0,0,0,0,0,0,0,0],"sum_hessian":[4.35E2,1.44E2,2.91E2,9.2E1,1.99E2,6.6E1,2.6E1,1.5E1,5.1E1,1.4E1,1.2E1,9E0,6E0,4E1,1.1E1,7E0,5E0],"tree_param":{"num_deleted":"0","num_feature":"33","num_nodes":"17","size_leaf_vector":"1"}},{"base_weights":[1.8665048E-1,-2.9755555E-2,7.586331E-1,2.4606742E-1,2.9826315E-2,5.7222223E-1,-2.4722221E-1,6.787234E-1,-3.3749999E-3,3.4615386E-2,-2.6999999E-2,2.4243243E-2,5.1818183E-3,-1.47E-2,1.04117645E-2],"categories":[],"categories_nodes":[],"categories_segments":[],"categories_sizes":[],"default_left":[0,0,0,0,0,0,0,0,0,0,0,0,0,0,0],"id":39,"left_children":[1,-1,3,5,-1,7,9,11,-1,13,-1,-1,-1,-1,-1],"loss_changes":[2.7845126E2,0E0,3.3199524E1,1.4493069E1,0E0,4.070858E0,6.7408757E0,2.8393402E0,0E0,4.417494E0,0E0,0E0,0E0,0E0,0E0],"parents":[2147483647,0,0,2,2,3,3,5,5,6,6,7,7,9,9],"right_children":[2,-1,4,6,-1,8,10,12,-1,14,-1,-1,-1,-1,-1],"split_conditions":[7.792335E6,-8.641554E4,7.768E3,3.48955E7,1.2065958E5,5.894E3,1.3296429E1,1.3981223E-1,-7.3979996E1,1.78465E7,-2.81331E3,1.6079249E3,6.8826E2,-2.4260698E3,1.4510549E3],"split_indices":[4,0,0,23,0,1,3,32,0,10,0,0,0,0,0],"split_type":[0,0,0,0,0,0,0,0,0,0,0,0,0,0,0],"sum_hessian":[4.11E2,1.34E2,2.77E2,8.8E1,1.89E2,5.3E1,3.5E1,4.6E1,7E0,2.5E1,1E1,3.6E1,1E1,9E0,1.6E1],"tree_param":{"num_deleted":"0","num_feature":"33","num_nodes":"15","size_leaf_vector":"1"}},{"base_weights":[1.9189815E-1,-2.9753732E-2,7.2207355E-1,1.9320388E-1,2.9832486E-2,7.96E-1,-0E0,2.8058821E-2,1.3E-2,1.3484849E-1,-6.357143E-1,-1.0754716E-3,2.3357142E-2,-4.5000003E-3,-2.6333332E-2],"categories":[],"categories_nodes":[],"categories_segments":[],"categories_sizes":[],"default_left":[0,0,0,0,0,0,0,0,0,0,0,0,0,0,0],"id":40,"left_children":[1,-1,3,5,-1,7,9,-1,-1,11,13,-1,-1,-1,-1],"loss_changes":[2.7179636E2,0E0,4.275522E1,1.1995644E1,0E0,7.207756E-1,6.8580084E0,0E0,0E0,7.35439E0,1.4115877E0,0E0,0E0,0E0,0E0],"parents":[2147483647,0,0,2,2,3,3,5,5,6,6,9,9,10,10],"right_children":[2,-1,4,6,-1,8,10,-1,-1,12,14,-1,-1,-1,-1],"split_conditions":[3.953E3,-8.4070555E4,7.16E3,1.4219E7,1.1937977E5,9.789E6,8.3E2,1.546605E3,1.11549E3,1.7866E7,1.3173809E1,-3.3149998E1,1.94598E3,-1.40436E3,-6.6361797E3],"split_indices":[0,0,1,12,0,20,2,0,0,20,3,0,0,0,0],"split_type":[0,0,0,0,0,0,0,0,0,0,0,0,0,0,0],"sum_hessian":[4.31E2,1.33E2,2.98E2,1.02E2,1.96E2,2.4E1,7.8E1,1.6E1,8E0,6.5E1,1.3E1,5.2E1,1.3E1,5E0,8E0],"tree_param":{"num_deleted":"0","num_feature":"33","num_nodes":"15","size_leaf_vector":"1"}},{"base_weights":[2.3885058E-1,-9.3405795E-1,7.815436E-1,-2.9744184E-2,-2.7E-3,4.2894736E-1,2.9821621E-2,5.463158E-1,-1.45E-1,-2.7E-3,6.151163E-1,-1.9666666E-2,2.4166666E-1,2.2343284E-2,4.3499996E-3,1.6714286E-2,-4.5000003E-3],"categories":[],"categories_nodes":[],"categories_segments":[],"categories_sizes":[],"default_left":[0,0,0,0,0,0,0,0,0,0,0,0,0,0,0,0,0],"id":41,"left_children":[1,3,5,-1,-1,7,-1,9,11,-1,13,-1,15,-1,-1,-1,-1],"loss_changes":[2.7760504E2,6.490303E0,2.176056E1,0E0,0E0,7.7987633E0,0E0,4.266861E0,4.1481113E0,0E0,5.0451813E0,0E0,1.6070237E0,0E0,0E0,0E0,0E0],"parents":[2147483647,0,0,1,1,2,2,5,5,7,7,8,8,10,10,12,12],"right_children":[2,4,6,-1,-1,8,-1,10,12,-1,14,-1,16,-1,-1,-1,-1],"split_conditions":[4.522E3,3.861E3,7.977E3,-9.545343E4,-2.34843E3,5.536E3,1.13908375E5,1.2072227E-1,3.8680565E-1,-4.4399998E1,1.3907443E-1,-1.43151E3,1.3080953E1,1.578495E3,4.7712E2,1.22547E3,-1.4466E2],"split_indices":[1,0,0,0,0,0,0,32,31,0,32,0,3,0,0,0,0],"split_type":[0,0,0,0,0,0,0,0,0,0,0,0,0,0,0,0,0],"sum_hessian":[4.34E2,1.37E2,2.97E2,1.28E2,9E0,1.13E2,1.84E2,9.4E1,1.9E1,9E0,8.5E1,8E0,1.1E1,6.6E1,1.9E1,6E0,5E0],"tree_param":{"num_deleted":"0","num_feature":"33","num_nodes":"17","size_leaf_vector":"1"}},{"base_weights":[2.5435778E-1,-2.9738095E-2,7.585209E-1,9.521552E-1,1.8625E-1,3.3749999E-3,9.773333E-1,3.753623E-1,-2.725E-2,4.5000003E-3,2.9849999E-2,6.913043E-1,2.106383E-1,2.7937498E-2,3.3749999E-3,1.6125001E-2,-3.625E-3],"categories":[],"categories_nodes":[],"categories_segments":[],"categories_sizes":[],"default_left":[0,0,0,0,0,0,0,0,0,0,0,0,0,0,0,0,0],"id":42,"left_children":[1,-1,3,5,7,-1,9,11,-1,-1,-1,13,15,-1,-1,-1,-1],"loss_changes":[2.745364E2,0E0,3.4171127E1,4.685791E0,1.6847591E1,0E0,3.0249023E0,3.355175E0,0E0,0E0,0E0,2.985135E0,5.198848E0,0E0,0E0,0E0,0E0],"parents":[2147483647,0,0,2,2,3,3,4,4,6,6,7,7,11,11,12,12],"right_children":[2,-1,4,6,8,-1,10,12,-1,-1,-1,14,16,-1,-1,-1,-1],"split_conditions":[7.671882E6,-8.8689836E4,1E0,1.2778E7,8.82E2,1.7831999E2,8.4995E6,1E1,-6.57906E3,2.0811E2,1.0450614E5,1.8186E7,7.5E2,2.1346199E3,3.204E1,1.5176699E3,-3.516E1],"split_indices":[4,0,5,13,2,0,16,29,0,0,0,16,2,0,0,0,0],"split_type":[0,0,0,0,0,0,0,0,0,0,0,0,0,0,0,0,0],"sum_hessian":[4.35E2,1.25E2,3.1E2,2.31E2,7.9E1,7E0,2.24E2,6.8E1,1.1E1,5E0,2.19E2,2.2E1,4.6E1,1.5E1,7E0,2.3E1,2.3E1],"tree_param":{"num_deleted":"0","num_feature":"33","num_nodes":"17","size_leaf_vector":"1"}},{"base_weights":[1.575406E-1,-8.791139E-1,7.551095E-1,-2.9729508E-2,-4.8378378E-1,1.397436E-1,2.9832486E-2,8.699999E-3,-7.4642855E-1,5.0851065E-1,-4.03125E-1,-8.699999E-3,-2.8263157E-2,7.4642855E-1,1.45E-1,1.45E-2,-5.888889E-1,4.5000003E-3,2.595652E-2,1.6090909E-2,-8.699999E-3,-4.3846155E-3,-2.78E-2],"categories":[],"categories_nodes":[],"categories_segments":[],"categories_sizes":[],"default_left":[0,0,0,0,0,0,0,0,0,0,0,0,0,0,0,0,0,0,0,0,0,0,0],"id":43,"left_children":[1,3,5,-1,7,9,-1,-1,11,13,15,-1,-1,17,19,-1,21,-1,-1,-1,-1,-1,-1],"loss_changes":[2.6764404E2,6.360718E0,4.00972E1,0E0,7.7816267E0,1.5830513E1,0E0,0E0,2.1043262E0,3.8674517E0,5.5646877E0,0E0,0E0,1.75247E0,3.5850456E0,0E0,3.7950249E0,0E0,0E0,0E0,0E0,0E0,0E0],"parents":[2147483647,0,0,1,1,2,2,4,4,5,5,8,8,9,9,10,10,13,13,14,14,16,16],"right_children":[2,4,6,-1,8,10,-1,-1,12,14,16,-1,-1,18,20,-1,22,-1,-1,-1,-1,-1,-1],"split_conditions":[1E0,3.891E3,7.977E3,-8.301414E4,8.4995E6,5.133E3,1.0274346E5,2.0187E2,1.2931429E7,2E1,2.7514572E7,-1.00901996E3,-1.738875E3,3.00605E7,6E0,3.89616E3,8.25E2,2.0705999E3,1.82883E3,3.696255E3,-1.872E2,-6.0899998E1,-6.1967397E3],"split_indices":[6,0,0,0,16,0,0,0,13,29,13,0,0,9,25,0,2,0,0,0,0,0,0],"split_type":[0,0,0,0,0,0,0,0,0,0,0,0,0,0,0,0,0,0,0,0,0,0,0],"sum_hessian":[4.3E2,1.57E2,2.73E2,1.21E2,3.6E1,7.7E1,1.96E2,9E0,2.7E1,4.6E1,3.1E1,9E0,1.8E1,2.7E1,1.9E1,5E0,2.6E1,5E0,2.2E1,1E1,9E0,1.2E1,1.4E1],"tree_param":{"num_deleted":"0","num_feature":"33","num_nodes":"23","size_leaf_vector":"1"}},{"base_weights":[1.6887255E-1,-8.06E-1,7.3320466E-1,-9.7350425E-1,-2.0294118E-1,1.2531646E-1,2.9817678E-2,-2.97027E-2,-1.6714286E-2,1.8375E-2,-4.4074073E-1,6.7727274E-1,-8.448276E-2,3.3749999E-3,-6.45E-1,4.5000003E-3,2.452941E-2,-2.5875E-2,3.7254903E-2,-2.7461536E-2,-3.3749999E-3,1.66875E-2,-5.7499995E-3],"categories":[],"categories_nodes":[],"categories_segments":[],"categories_sizes":[],"default_left":[0,0,0,0,0,0,0,0,0,0,0,0,0,0,0,0,0,0,0,0,0,0,0],"id":44,"left_children":[1,3,5,7,9,11,-1,-1,-1,-1,13,15,17,-1,19,-1,-1,-1,21,-1,-1,-1,-1],"loss_changes":[2.2504565E2,1.48370285E1,4.0811752E1,1.01623535E-1,6.845771E0,9.264695E0,0E0,0E0,0E0,0E0,3.1769352E0,1.4089317E0,5.6080685E0,0E0,2.6738262E0,0E0,0E0,0E0,6.2023406E0,0E0,0E0,0E0,0E0],"parents":[2147483647,0,0,1,1,2,2,3,3,4,4,5,5,10,10,11,11,12,12,14,14,18,18],"right_children":[2,4,6,8,10,12,-1,-1,-1,-1,14,16,18,-1,20,-1,-1,-1,22,-1,-1,-1,-1],"split_conditions":[5.242E3,7.606853E6,1.5467369E7,4.426E3,3.953E3,9.500604E6,1.0095114E5,-8.221122E4,-7.434885E3,1.48971E3,1.3472E7,3.0637E7,3.7951502E-1,2.22E0,2.5E1,6.6756E2,1.992375E3,-5.82594E3,2.823638E7,-1.8595199E3,-8.6582996E2,2.77398E3,-8.238E1],"split_indices":[1,4,4,1,0,4,0,0,0,0,10,9,31,0,27,0,0,0,21,0,0,0,0],"split_type":[0,0,0,0,0,0,0,0,0,0,0,0,0,0,0,0,0,0,0,0,0,0,0],"sum_hessian":[4.07E2,1.49E2,2.58E2,1.16E2,3.3E1,7.8E1,1.8E2,1.1E2,6E0,7E0,2.6E1,2.1E1,5.7E1,7E0,1.9E1,5E0,1.6E1,7E0,5E1,1.2E1,7E0,1.5E1,3.5E1],"tree_param":{"num_deleted":"0","num_feature":"33","num_nodes":"23","size_leaf_vector":"1"}},{"base_weights":[1.8726853E-1,-8.019108E-1,7.4963766E-1,-2.9705357E-2,-3.2391304E-1,2.9834172E-2,1.14102565E-1,1.0875E-2,-4.5897436E-1,2.6716417E-1,-2.225E-2,3.3749999E-3,-5.90625E-1,1.1132076E-1,2.38E-2,-0E0,-2.1807691E-2,2.1545453E-2,-1.3255815E-3],"categories":[],"categories_nodes":[],"categories_segments":[],"categories_sizes":[],"default_left":[0,0,0,0,0,0,0,0,0,0,0,0,0,0,0,0,0,0,0],"id":45,"left_children":[1,3,5,-1,7,-1,9,-1,11,13,-1,-1,15,17,-1,-1,-1,-1,-1],"loss_changes":[2.4091058E2,1.3676529E1,4.2721558E1,0E0,4.440587E0,0E0,1.0367559E1,0E0,3.048421E0,5.315221E0,0E0,0E0,2.5760336E0,5.100797E0,0E0,0E0,0E0,0E0,0E0],"parents":[2147483647,0,0,1,1,2,2,4,4,6,6,8,8,9,9,12,12,13,13],"right_children":[2,4,6,-1,8,-1,10,-1,12,14,-1,-1,16,18,-1,-1,-1,-1,-1],"split_conditions":[1E0,7.404606E6,1E0,-8.474739E4,1.2921571E7,1.0003008E5,3.8955E7,7.1432996E2,4.402E3,7.5295055E6,-6.5896797E3,1.31658E3,1.3472E7,3.23785E7,1.932615E3,-7.79415E2,-1.60614E3,2.50398E3,-1.617E1],"split_indices":[6,4,5,0,21,0,15,0,1,22,0,0,10,15,0,0,0,0,0],"split_type":[0,0,0,0,0,0,0,0,0,0,0,0,0,0,0,0,0,0,0],"sum_hessian":[4.31E2,1.56E2,2.75E2,1.11E2,4.5E1,1.98E2,7.7E1,7E0,3.8E1,6.6E1,1.1E1,7E0,3.1E1,5.2E1,1.4E1,6E0,2.5E1,1E1,4.2E1],"tree_param":{"num_deleted":"0","num_feature":"33","num_nodes":"19","size_leaf_vector":"1"}},{"base_weights":[1.7056179E-1,-4.9352226E-1,2.9834172E-2,-2.9717946E-2,-4.5038167E-2,2.3357142E-2,-1.4322034E-1,-4.6595743E-1,6.8055555E-2,8.699999E-3,-1.9657895E-2,9.697674E-3,-8.9E-3],"categories":[],"categories_nodes":[],"categories_segments":[],"categories_sizes":[],"default_left":[0,0,0,0,0,0,0,0,0,0,0,0,0],"id":46,"left_children":[1,3,-1,-1,5,-1,7,9,11,-1,-1,-1,-1],"loss_changes":[2.4402078E2,5.49157E1,0E0,0E0,1.0641127E1,0E0,8.1175165E0,6.952585E0,6.8001175E0,0E0,0E0,0E0,0E0],"parents":[2147483647,0,0,1,1,4,4,6,6,7,7,8,8],"right_children":[2,4,-1,-1,6,-1,8,10,12,-1,-1,-1,-1],"split_conditions":[1.5598075E7,7.469167E6,9.909168E4,-8.482248E4,1.03775E7,1.3032E3,1.7448E7,9.067E6,3.87255E7,1.7148E2,-1.46946E3,9.165E2,-1.4607E3],"split_indices":[4,4,0,0,12,0,12,16,23,0,0,0,0],"split_type":[0,0,0,0,0,0,0,0,0,0,0,0,0],"sum_hessian":[4.44E2,2.46E2,1.98E2,1.16E2,1.3E2,1.3E1,1.17E2,4.6E1,7.1E1,9E0,3.7E1,4.2E1,2.9E1],"tree_param":{"num_deleted":"0","num_feature":"33","num_nodes":"13","size_leaf_vector":"1"}},{"base_weights":[1.9217002E-1,-8.273885E-1,7.419244E-1,-2.9722687E-2,-3.0512822E-1,1.367816E-1,2.9839024E-2,1.6111112E-1,-6.7727274E-1,3.1805557E-1,-6.8125E-1,-1.4615385E-1,2.45E-2,-8.699999E-3,-2.7461536E-2,4.2923078E-1,-1.8375E-2,-4.5000003E-3,-2.6999999E-2,-2.45E-2,1.0875E-2,6.0681817E-3,2.5772728E-2],"categories":[],"categories_nodes":[],"categories_segments":[],"categories_sizes":[],"default_left":[0,0,0,0,0,0,0,0,0,0,0,0,0,0,0,0,0,0,0,0,0,0,0],"id":47,"left_children":[1,3,5,-1,7,9,-1,11,13,15,17,19,-1,-1,-1,21,-1,-1,-1,-1,-1,-1,-1],"loss_changes":[2.5115184E2,1.2963432E1,4.4252136E1,0E0,6.92756E0,1.3081396E1,0E0,3.8121367E0,1.6427135E0,7.6933165E0,1.6193752E0,4.775224E0,0E0,0E0,0E0,6.061508E0,0E0,0E0,0E0,0E0,0E0,0E0,0E0],"parents":[2147483647,0,0,1,1,2,2,4,4,5,5,7,7,8,8,9,9,10,10,11,11,15,15],"right_children":[2,4,6,-1,8,10,-1,12,14,16,18,20,-1,-1,-1,22,-1,-1,-1,-1,-1,-1,-1],"split_conditions":[8.144587E6,7.469167E6,1.5598075E7,-7.666782E4,3.953E3,8.59E2,9.5871414E4,1.39615E7,1.3053786E7,2.07315E7,1.7744E7,1.2828654E-1,1.44933E3,-1.4935499E3,-1.553565E3,6.875872E6,-2.3565898E3,-6.9204E2,-5.8192197E3,-1.52265E3,1.24614E3,1.1022E2,1.5420599E3],"split_indices":[4,4,4,0,0,2,0,8,13,12,12,32,0,0,0,22,0,0,0,0,0,0,0],"split_type":[0,0,0,0,0,0,0,0,0,0,0,0,0,0,0,0,0,0,0,0,0,0,0],"sum_hessian":[4.46E2,1.56E2,2.9E2,1.18E2,3.8E1,8.6E1,2.04E2,1.7E1,2.1E1,7.1E1,1.5E1,1.2E1,5E0,9E0,1.2E1,6.4E1,7E0,5E0,1E1,5E0,7E0,4.3E1,2.1E1],"tree_param":{"num_deleted":"0","num_feature":"33","num_nodes":"23","size_leaf_vector":"1"}},{"base_weights":[2.0868544E-1,-7.705882E-1,7.551095E-1,-2.97E-2,-2.0227273E-1,2.5444445E-1,2.9821621E-2,1.8375E-2,-3.7567568E-1,5.3809524E-1,-3.892857E-1,2.4166666E-1,-6.5E-1,7.0789474E-1,2.653846E-1,5.625E-2,-2.7461536E-2,2.45E-2,-8.142858E-3,-2.5105262E-2,-3.3749999E-3,2.6899999E-2,-0E0,-1.6714286E-2,1.635E-2,-5.1818183E-3,1.45E-2],"categories":[],"categories_nodes":[],"categories_segments":[],"categories_sizes":[],"default_left":[0,0,0,0,0,0,0,0,0,0,0,0,0,0,0,0,0,0,0,0,0,0,0,0,0,0,0],"id":48,"left_children":[1,3,5,-1,7,9,-1,-1,11,13,15,17,19,21,23,25,-1,-1,-1,-1,-1,-1,-1,-1,-1,-1,-1],"loss_changes":[2.2853236E2,1.8758865E1,3.2401184E1,0E0,6.4229145E0,1.6657864E1,0E0,0E0,6.463941E0,2.6320934E0,6.7004876E0,3.8165474E0,2.422039E0,5.077965E0,6.2822027E0,1.6792234E0,0E0,0E0,0E0,0E0,0E0,0E0,0E0,0E0,0E0,0E0,0E0],"parents":[2147483647,0,0,1,1,2,2,4,4,5,5,8,8,9,9,10,10,11,11,12,12,13,13,14,14,15,15],"right_children":[2,4,6,-1,8,10,-1,-1,12,14,16,18,20,22,24,26,-1,-1,-1,-1,-1,-1,-1,-1,-1,-1,-1],"split_conditions":[1E0,3.779E3,8.097E3,-7.883028E4,3.861E3,3.34685E7,9.428526E4,1.20876E3,8.603E6,1.3244047E1,1.2970014E-1,1.45435E7,1.37525E7,7.254615E6,1.2922497E-1,1.2858348E-1,-2.57139E3,2.1117E2,-1.88601E3,-2.26332E3,-3.9555E2,2.17116E3,-1.07579994E2,-4.5915E2,1.80774E3,-5.214E1,1.32522E3],"split_indices":[6,0,0,0,0,9,0,0,16,3,32,7,8,14,32,32,0,0,0,0,0,0,0,0,0,0,0],"split_type":[0,0,0,0,0,0,0,0,0,0,0,0,0,0,0,0,0,0,0,0,0,0,0,0,0,0,0],"sum_hessian":[4.25E2,1.52E2,2.73E2,1.09E2,4.3E1,8.9E1,1.84E2,7E0,3.6E1,6.2E1,2.7E1,1.1E1,2.5E1,3.7E1,2.5E1,1.5E1,1.2E1,5E0,6E0,1.8E1,7E0,2.9E1,8E0,6E0,1.9E1,1E1,5E0],"tree_param":{"num_deleted":"0","num_feature":"33","num_nodes":"27","size_leaf_vector":"1"}},{"base_weights":[2.0113122E-1,-4.560166E-1,9.846535E-1,-2.9715518E-2,3.888889E-2,1.6714286E-2,2.9831631E-2,1.7047618E-1,-5.863636E-1,2.2352941E-2,7.5714284E-1,-2.7E-3,-2.7461536E-2,-4.3064514E-3,1.3625E-2,1.0875E-2,2.7642855E-2],"categories":[],"categories_nodes":[],"categories_segments":[],"categories_sizes":[],"default_left":[0,0,0,0,0,0,0,0,0,0,0,0,0,0,0,0,0],"id":49,"left_children":[1,3,5,-1,7,-1,-1,9,11,13,15,-1,-1,-1,-1,-1,-1],"loss_changes":[2.2808324E2,6.388476E1,1.3145447E-1,0E0,1.0425059E1,0E0,0E0,9.029518E0,3.409986E0,6.185527E0,8.9910793E-1,0E0,0E0,0E0,0E0,0E0,0E0],"parents":[2147483647,0,0,1,1,2,2,4,4,7,7,8,8,9,9,10,10],"right_children":[2,4,6,-1,8,-1,-1,10,12,14,16,-1,-1,-1,-1,-1,-1],"split_conditions":[1.5598075E7,7.367169E6,9.233E3,-7.4995375E4,2.8797786E7,9.16542E3,9.156168E4,3.18815E7,1.2922497E-1,6.820237E6,7.04E2,-3.33E1,-4.4137197E3,-1.6445999E2,8.1833997E2,1.16361E3,2.4438E3],"split_indices":[4,4,1,0,17,0,0,7,32,22,2,0,0,0,0,0,0],"split_type":[0,0,0,0,0,0,0,0,0,0,0,0,0,0,0,0,0],"sum_hessian":[4.41E2,2.4E2,2.01E2,1.15E2,1.25E2,6E0,1.95E2,1.04E2,2.1E1,8.4E1,2E1,9E0,1.2E1,6.1E1,2.3E1,7E0,1.3E1],"tree_param":{"num_deleted":"0","num_feature":"33","num_nodes":"17","size_leaf_vector":"1"}},{"base_weights":[2.140553E-1,-4.1208333E-1,9.8410255E-1,-9.7207206E-1,6.846154E-2,1.6714286E-2,2.9825397E-2,-2.9688679E-2,-1.45E-2,2.4065934E-1,-3.225E-1,-3.1363636E-1,4.1285715E-1,2.0714286E-1,-5.888889E-1,-1.98E-2,1.0875E-2,1.47230765E-2,-1.45E-2,-8.142858E-3,1.8375E-2,-2.535E-2,3.3749999E-3],"categories":[],"categories_nodes":[],"categories_segments":[],"categories_sizes":[],"default_left":[0,0,0,0,0,0,0,0,0,0,0,0,0,0,0,0,0,0,0,0,0,0,0],"id":50,"left_children":[1,3,5,7,9,-1,-1,-1,-1,11,13,15,17,19,21,-1,-1,-1,-1,-1,-1,-1,-1],"loss_changes":[2.0971857E2,6.4740845E1,1.2997437E-1,3.2649994E-1,8.8213825E0,0E0,0E0,0E0,0E0,8.825224E0,5.803798E0,5.421159E0,5.1256332E0,2.9162502E0,5.0184155E0,0E0,0E0,0E0,0E0,0E0,0E0,0E0,0E0],"parents":[2147483647,0,0,1,1,2,2,3,3,4,4,9,9,10,10,11,11,12,12,13,13,14,14],"right_children":[2,4,6,8,10,-1,-1,-1,-1,12,14,16,18,20,22,-1,-1,-1,-1,-1,-1,-1,-1],"split_conditions":[1.5598075E7,7.35825E6,8.097E3,3.74E3,5.133E3,8.890439E3,8.876982E4,-8.746053E4,-1.7138099E3,1.2573569E-1,1.2610714E1,1.63835E7,9E0,5E0,2.16025E7,-2.14749E3,1.7742E2,7.4154E2,-1.1178E2,-1.0359E2,2.2689E3,-7.1076E2,4.6362E2],"split_indices":[4,4,0,0,0,0,0,0,0,32,3,7,26,26,10,0,0,0,0,0,0,0,0],"split_type":[0,0,0,0,0,0,0,0,0,0,0,0,0,0,0,0,0,0,0,0,0,0,0],"sum_hessian":[4.33E2,2.39E2,1.94E2,1.1E2,1.29E2,6E0,1.88E2,1.05E2,5E0,9E1,3.9E1,2.1E1,6.9E1,1.3E1,2.6E1,1.4E1,7E0,6.4E1,5E0,6E0,7E0,1.9E1,7E0],"tree_param":{"num_deleted":"0","num_feature":"33","num_nodes":"23","size_leaf_vector":"1"}},{"base_weights":[2.2274774E-1,-4.4212765E-1,9.6619046E-1,-9.704762E-1,-1.4503817E-2,5.2666664E-1,2.9831631E-2,-2.967E-2,-1.45E-2,6.263158E-1,-1.2300885E-1,2.67E-2,-4.5000003E-3,2.67E-2,8.699999E-3,-2.6333332E-2,-5.6190476E-2,1.725E-2,-4.1170213E-3],"categories":[],"categories_nodes":[],"categories_segments":[],"categories_sizes":[],"default_left":[0,0,0,0,0,0,0,0,0,0,0,0,0,0,0,0,0,0,0],"id":51,"left_children":[1,3,5,7,9,11,-1,-1,-1,13,15,-1,-1,-1,-1,-1,17,-1,-1],"loss_changes":[2.1994736E2,5.2982018E1,1.9267883E0,3.2224274E-1,9.135424E0,3.8953333E0,0E0,0E0,0E0,1.3088422E0,5.556145E0,0E0,0E0,0E0,0E0,0E0,5.4062953E0,0E0,0E0],"parents":[2147483647,0,0,1,1,2,2,3,3,4,4,5,5,9,9,10,10,16,16],"right_children":[2,4,6,8,10,12,-1,-1,-1,14,16,-1,-1,-1,-1,-1,18,-1,-1],"split_conditions":[6.23E3,3.679E3,8.195E3,4.187E3,1.31615E7,1.3013095E1,9.113172E4,-8.9186695E4,-2.59818E3,9.462E6,1.4011E7,1.419672E4,-4.7897998E2,1.7361599E3,5.3201996E2,-2.1274949E3,4.422E3,1.15515E3,-3.318E1],"split_indices":[0,0,0,1,12,3,0,0,0,12,12,0,0,0,0,0,1,0,0],"split_type":[0,0,0,0,0,0,0,0,0,0,0,0,0,0,0,0,0,0,0],"sum_hessian":[4.43E2,2.34E2,2.09E2,1.04E2,1.3E2,1.4E1,1.95E2,9.9E1,5E0,1.8E1,1.12E2,9E0,5E0,9E0,9E0,8E0,1.04E2,1.1E1,9.3E1],"tree_param":{"num_deleted":"0","num_feature":"33","num_nodes":"19","size_leaf_vector":"1"}},{"base_weights":[1.9567198E-1,-4.116E-1,2.9826315E-2,-2.9673267E-2,-1.9333333E-2,6.263158E-1,-1.12878785E-1,2.725E-2,3.3749999E-3,3.8333333E-1,-1.9043478E-1,-2.45E-2,2.7461536E-2,-1.8771429E-2,-0E0],"categories":[],"categories_nodes":[],"categories_segments":[],"categories_sizes":[],"default_left":[0,0,0,0,0,0,0,0,0,0,0,0,0,0,0],"id":52,"left_children":[1,3,-1,-1,5,7,9,-1,-1,11,13,-1,-1,-1,-1],"loss_changes":[2.1335178E2,5.651441E1,0E0,0E0,9.078985E0,2.548925E0,5.133628E0,0E0,0E0,1.22497425E1,9.53262E0,0E0,0E0,0E0,0E0],"parents":[2147483647,0,0,1,1,4,4,5,5,6,6,9,9,10,10],"right_children":[2,4,-1,-1,6,8,10,-1,-1,12,14,-1,-1,-1,-1],"split_conditions":[1.5834863E7,7.231924E6,8.920776E4,-8.6428586E4,1.31615E7,1.3374761E-1,4.439E3,1.85232E3,1.7154E2,4.263E3,1.69285E7,-2.45478E3,1.422855E3,-1.551615E3,-2.1299999E0],"split_indices":[4,4,0,0,12,32,1,0,0,1,11,0,0,0,0],"split_type":[0,0,0,0,0,0,0,0,0,0,0,0,0,0,0],"sum_hessian":[4.38E2,2.49E2,1.89E2,1E2,1.49E2,1.8E1,1.31E2,1.1E1,7E0,1.7E1,1.14E2,5E0,1.2E1,3.4E1,8E1],"tree_param":{"num_deleted":"0","num_feature":"33","num_nodes":"15","size_leaf_vector":"1"}},{"base_weights":[1.8640552E-1,-4.1591838E-1,9.626316E-1,-9.704762E-1,-0E0,3.5454544E-1,2.9816667E-2,-2.9666666E-2,-1.6714286E-2,5.45E-1,-8.934426E-2,-4.5000003E-3,2.45E-2,2.2846153E-2,3.3749999E-3,4.3125E-1,-1.6728972E-1,-0E0,2.5875E-2,-1.9258063E-2,7.402597E-4],"categories":[],"categories_nodes":[],"categories_segments":[],"categories_sizes":[],"default_left":[0,0,0,0,0,0,0,0,0,0,0,0,0,0,0,0,0,0,0,0,0],"id":53,"left_children":[1,3,5,7,9,11,-1,-1,-1,13,15,-1,-1,-1,-1,17,19,-1,-1,-1,-1],"loss_changes":[2.0336719E2,5.650944E1,3.1241302E0,9.3559265E-2,6.9143524E0,2.7539396E0,0E0,0E0,0E0,1.6999812E0,4.9962583E0,0E0,0E0,0E0,0E0,2.975625E0,9.826914E0,0E0,0E0,0E0,0E0],"parents":[2147483647,0,0,1,1,2,2,3,3,4,4,5,5,9,9,10,10,15,15,16,16],"right_children":[2,4,6,8,10,12,-1,-1,-1,14,16,-1,-1,-1,-1,18,20,-1,-1,-1,-1],"split_conditions":[8.011E3,3.657E3,8.195E3,3.609E3,1.31615E7,3.0383E7,8.2661516E4,-7.923072E4,-2.32374E3,7.0501335E6,3.861E3,-7.041E2,8.1213E3,1.71645E3,3.2112E2,1.01585E7,1.4557E7,-7.2733496E2,2.0344199E3,-1.8207749E3,2.256E1],"split_indices":[0,0,0,0,12,7,0,0,0,14,0,0,0,0,0,8,8,0,0,0,0],"split_type":[0,0,0,0,0,0,0,0,0,0,0,0,0,0,0,0,0,0,0,0,0],"sum_hessian":[4.33E2,2.44E2,1.89E2,1.04E2,1.4E2,1E1,1.79E2,9.8E1,6E0,1.9E1,1.21E2,5E0,5E0,1.2E1,7E0,1.5E1,1.06E2,8E0,7E0,3E1,7.6E1],"tree_param":{"num_deleted":"0","num_feature":"33","num_nodes":"21","size_leaf_vector":"1"}},{"base_weights":[2.065909E-1,-4.1829267E-1,2.9830769E-2,-2.9688679E-2,1.3475177E-2,6.263158E-1,-8.04878E-2,-4.5000003E-3,2.7642855E-2,5.8235294E-1,-1.859813E-1,2.6333332E-2,6.3333334E-3,-1.5674999E-2,3.9705881E-4],"categories":[],"categories_nodes":[],"categories_segments":[],"categories_sizes":[],"default_left":[0,0,0,0,0,0,0,0,0,0,0,0,0,0,0],"id":54,"left_children":[1,3,-1,-1,5,7,9,-1,-1,11,13,-1,-1,-1,-1],"loss_changes":[2.1706941E2,6.0794704E1,0E0,0E0,8.224384E0,4.568271E0,8.669493E0,0E0,0E0,1.5702615E0,7.2311335E0,0E0,0E0,0E0,0E0],"parents":[2147483647,0,0,1,1,4,4,5,5,6,6,9,9,10,10],"right_children":[2,4,-1,-1,6,8,10,-1,-1,12,14,-1,-1,-1,-1],"split_conditions":[1.5711734E7,7.176243E6,7.415916E4,-7.240629E4,4.439E3,3.641E3,1.03775E7,-4.2E0,1.42689E3,7.0501335E6,1.7523E7,1.7382899E3,4.5359998E2,-7.977E2,4.3559998E1],"split_indices":[4,4,0,0,1,0,12,0,0,14,12,0,0,0,0],"split_type":[0,0,0,0,0,0,0,0,0,0,0,0,0,0,0],"sum_hessian":[4.39E2,2.45E2,1.94E2,1.05E2,1.4E2,1.8E1,1.22E2,5E0,1.3E1,1.6E1,1.06E2,8E0,8E0,3.9E1,6.7E1],"tree_param":{"num_deleted":"0","num_feature":"33","num_nodes":"15","size_leaf_vector":"1"}},{"base_weights":[2.1685912E-1,-3.8641974E-1,9.8376966E-1,-9.6990293E-1,4.1843973E-2,1.45E-2,2.982258E-2,-2.9659793E-2,-1.6714286E-2,1.761062E-1,-4.7931033E-1,2.41875E-2,7.0408165E-2,-1.1176471E-1,-2.7461536E-2,2.5875E-2,-0E0,-1.9666666E-2,1.3E-2],"categories":[],"categories_nodes":[],"categories_segments":[],"categories_sizes":[],"default_left":[0,0,0,0,0,0,0,0,0,0,0,0,0,0,0,0,0,0,0],"id":55,"left_children":[1,3,5,7,9,-1,-1,-1,-1,11,13,-1,15,17,-1,-1,-1,-1,-1],"loss_changes":[2.0077206E2,6.0855362E1,3.5787964E-1,9.2033386E-2,9.920048E0,0E0,0E0,0E0,0E0,7.381928E0,4.4430156E0,0E0,5.4654336E0,5.345425E0,0E0,0E0,0E0,0E0,0E0],"parents":[2147483647,0,0,1,1,2,2,3,3,4,4,9,9,10,10,12,12,13,13],"right_children":[2,4,6,8,10,-1,-1,-1,-1,12,14,-1,16,18,-1,-1,-1,-1,-1],"split_conditions":[1.5834863E7,7.213528E6,1.5920394E7,3.657E3,3.34685E7,3.1658398E3,8.101686E4,-7.677411E4,-2.16303E3,1.2269048E1,1.2970014E-1,1.70247E3,9.433E6,1.86855E7,-2.848125E3,1.72194E3,8.79E0,-6.78885E2,8.6874E2],"split_indices":[4,4,4,0,9,0,0,0,0,3,32,0,12,16,0,0,0,0,0],"split_type":[0,0,0,0,0,0,0,0,0,0,0,0,0,0,0,0,0,0,0],"sum_hessian":[4.32E2,2.42E2,1.9E2,1.02E2,1.4E2,5E0,1.85E2,9.6E1,6E0,1.12E2,2.8E1,1.5E1,9.7E1,1.6E1,1.2E1,7E0,9E1,8E0,8E0],"tree_param":{"num_deleted":"0","num_feature":"33","num_nodes":"19","size_leaf_vector":"1"}},{"base_weights":[2.0311005E-1,-3.8451883E-1,9.827778E-1,-2.9666666E-2,4.1843973E-2,1.45E-2,2.9811427E-2,2.38E-2,-4.6456695E-2,4.4074073E-1,-1.7722772E-1,-3.3749999E-3,1.935E-2,-1.3769231E-2,-0E0],"categories":[],"categories_nodes":[],"categories_segments":[],"categories_sizes":[],"default_left":[0,0,0,0,0,0,0,0,0,0,0,0,0,0,0],"id":56,"left_children":[1,3,5,-1,7,-1,-1,-1,9,11,13,-1,-1,-1,-1],"loss_changes":[1.9194661E2,6.1721825E1,3.5520935E-1,0E0,9.467882E0,0E0,0E0,0E0,8.143096E0,3.1769352E0,5.043265E0,0E0,0E0,0E0,0E0],"parents":[2147483647,0,0,1,1,2,2,4,4,8,8,9,9,10,10],"right_children":[2,4,6,-1,8,-1,-1,-1,10,12,14,-1,-1,-1,-1],"split_conditions":[1.5861382E7,4.158E3,9.403E3,-8.389839E4,1.03775E7,3.8630398E3,7.9643875E4,1.58688E3,4.439E3,7.176243E6,1.7586E7,-3.996E2,1.0565399E3,-7.15815E2,1.914E1],"split_indices":[4,1,1,0,12,0,0,0,1,4,12,0,0,0,0],"split_type":[0,0,0,0,0,0,0,0,0,0,0,0,0,0,0],"sum_hessian":[4.17E2,2.38E2,1.79E2,9.8E1,1.4E2,5E0,1.74E2,1.4E1,1.26E2,2.6E1,1E2,7E0,1.9E1,3.8E1,6.2E1],"tree_param":{"num_deleted":"0","num_feature":"33","num_nodes":"15","size_leaf_vector":"1"}},{"base_weights":[1.8555045E-1,-3.5977012E-1,2.9812498E-2,-2.9663265E-2,1.7682927E-2,6.7727274E-1,-8.321679E-2,2.7461536E-2,8.699999E-3,5.2105266E-1,-1.752E-1,2.6999999E-2,-0E0,-1.851724E-2,-1.2061856E-3],"categories":[],"categories_nodes":[],"categories_segments":[],"categories_sizes":[],"default_left":[0,0,0,0,0,0,0,0,0,0,0,0,0,0,0],"id":57,"left_children":[1,3,-1,-1,5,7,9,-1,-1,11,13,-1,-1,-1,-1],"loss_changes":[1.9257825E2,6.208121E1,0E0,0E0,1.1030363E1,1.6427135E0,8.005021E0,0E0,0E0,3.7515788E0,7.3685455E0,0E0,0E0,0E0,0E0],"parents":[2147483647,0,0,1,1,4,4,5,5,6,6,9,9,10,10],"right_children":[2,4,-1,-1,6,8,10,-1,-1,12,14,-1,-1,-1,-1],"split_conditions":[1.5982566E7,7.123062E6,7.7007055E4,-7.4803945E4,1.31615E7,9.789E6,4.422E3,1.294725E3,1.6025399E3,1.5361E7,1.45435E7,8.91285E2,1.38345E2,-1.55883E3,-1.767E1],"split_indices":[4,4,0,0,12,20,1,0,0,15,8,0,0,0,0],"split_type":[0,0,0,0,0,0,0,0,0,0,0,0,0,0,0],"sum_hessian":[4.35E2,2.6E2,1.75E2,9.7E1,1.63E2,2.1E1,1.42E2,1.2E1,9E0,1.8E1,1.24E2,1E1,8E0,2.8E1,9.6E1],"tree_param":{"num_deleted":"0","num_feature":"33","num_nodes":"15","size_leaf_vector":"1"}},{"base_weights":[2.4685314E-1,-2.9633332E-2,5.732353E-1,1.3630952E-1,2.9809248E-2,6.6190475E-1,6.0135134E-2,2.78E-2,-0E0,2.6333332E-2,6.4285714E-3,-1.3941176E-2,2.1532257E-3],"categories":[],"categories_nodes":[],"categories_segments":[],"categories_sizes":[],"default_left":[0,0,0,0,0,0,0,0,0,0,0,0,0],"id":58,"left_children":[1,-1,3,5,-1,7,9,-1,-1,-1,11,-1,-1],"loss_changes":[1.7339526E2,0E0,6.2204918E1,6.614192E0,0E0,3.68019E0,6.405028E0,0E0,0E0,0E0,4.3041806E0,0E0,0E0],"parents":[2147483647,0,0,2,2,3,3,5,5,6,6,10,10],"right_children":[2,-1,4,6,-1,8,10,-1,-1,-1,12,-1,-1],"split_conditions":[7.035527E6,-8.158983E4,1.6003379E7,1.2255953E1,7.602432E4,2.823638E7,1.2213143E7,2.20473E3,-1.0182E2,1.32837E3,1.2914286E7,-1.799595E3,4.7969997E1],"split_indices":[4,0,4,3,0,21,13,0,0,0,13,0,0],"split_type":[0,0,0,0,0,0,0,0,0,0,0,0,0],"sum_hessian":[4.28E2,8.9E1,3.39E2,1.67E2,1.72E2,2E1,1.47E2,1.4E1,6E0,8E0,1.39E2,1.6E1,1.23E2],"tree_param":{"num_deleted":"0","num_feature":"33","num_nodes":"13","size_leaf_vector":"1"}},{"base_weights":[1.8755656E-1,-3.09854E-1,2.9804733E-2,-9.69E-1,6.8E-2,-2.965263E-2,-1.45E-2,2.4454546E-1,-2.2575757E-1,-5.75E-1,3.4242424E-1,2.45E-1,-4.2340425E-1,-4.5000003E-3,-2.5285713E-2,-1.0636363E-2,1.27752805E-2,-1.45E-2,1.58E-2,-2.3045454E-2,-3.3461538E-3],"categories":[],"categories_nodes":[],"categories_segments":[],"categories_sizes":[],"default_left":[0,0,0,0,0,0,0,0,0,0,0,0,0,0,0,0,0,0,0,0,0],"id":59,"left_children":[1,3,-1,5,7,-1,-1,9,11,13,15,17,19,-1,-1,-1,-1,-1,-1,-1,-1],"loss_changes":[1.7756534E2,6.83987E1,0E0,3.1829834E-1,9.13286E0,0E0,0E0,8.997408E0,6.262458E0,1.1403577E0,5.9139843E0,4.361833E0,4.8799887E0,0E0,0E0,0E0,0E0,0E0,0E0,0E0,0E0],"parents":[2147483647,0,0,1,1,3,3,4,4,7,7,8,8,9,9,10,10,11,11,12,12],"right_children":[2,4,-1,6,8,-1,-1,10,12,14,16,18,20,-1,-1,-1,-1,-1,-1,-1,-1],"split_conditions":[1.6111979E7,7.001896E6,7.41861E4,3.459E3,9.841685E6,-7.8294625E4,-8.41713E3,9.7025E6,4E0,3.993E3,3.7375635E-1,2.9712E7,7.117208E6,-1.2450599E3,-2.251035E3,-2.2825499E2,6.2049E2,-1.76334E3,2.23071E3,-3.3258E2,-6.582E1],"split_indices":[4,4,0,0,4,0,0,9,25,0,31,7,14,0,0,0,0,0,0,0,0],"split_type":[0,0,0,0,0,0,0,0,0,0,0,0,0,0,0,0,0,0,0,0,0],"sum_hessian":[4.41E2,2.73E2,1.68E2,9.9E1,1.74E2,9.4E1,5E0,1.09E2,6.5E1,1.1E1,9.8E1,1.9E1,4.6E1,5E0,6E0,1E1,8.8E1,5E0,1.4E1,2.1E1,2.5E1],"tree_param":{"num_deleted":"0","num_feature":"33","num_nodes":"21","size_leaf_vector":"1"}},{"base_weights":[2.0933941E-1,-2.8959107E-1,2.9807016E-2,-9.673684E-1,7.942857E-2,-2.9633332E-2,-1.45E-2,6.7727274E-1,-5.844156E-3,2.452941E-2,4.5000003E-3,-4.138889E-1,1.1680672E-1,6.2142857E-3,-2.3347827E-2,1.3339286E-2,-5.109375E-3],"categories":[],"categories_nodes":[],"categories_segments":[],"categories_sizes":[],"default_left":[0,0,0,0,0,0,0,0,0,0,0,0,0,0,0,0,0],"id":60,"left_children":[1,3,-1,5,7,-1,-1,9,11,-1,-1,13,15,-1,-1,-1,-1],"loss_changes":[1.7212791E2,6.7446075E1,0E0,3.1394958E-1,8.992565E0,0E0,0E0,1.4089317E0,7.7852983E0,0E0,0E0,8.36464E0,1.13044E1,0E0,0E0,0E0,0E0],"parents":[2147483647,0,0,1,1,3,3,4,4,7,7,8,8,11,11,12,12],"right_children":[2,4,-1,6,8,-1,-1,10,12,-1,-1,14,16,-1,-1,-1,-1],"split_conditions":[1.6050931E7,7.001896E6,7.3730516E4,3.459E3,1.3261E7,-7.679328E4,-8.1646196E3,9.4375E6,1.39615E7,1.247715E3,1.3973999E2,4.439E3,9.859633E6,6.4011E2,-1.58226E3,1.15695E3,-3.024E2],"split_indices":[4,4,0,0,10,0,0,20,8,0,0,1,4,0,0,0,0],"split_type":[0,0,0,0,0,0,0,0,0,0,0,0,0,0,0,0,0],"sum_hessian":[4.38E2,2.68E2,1.7E2,9.4E1,1.74E2,8.9E1,5E0,2.1E1,1.53E2,1.6E1,5E0,3.5E1,1.18E2,1.3E1,2.2E1,5.5E1,6.3E1],"tree_param":{"num_deleted":"0","num_feature":"33","num_nodes":"17","size_leaf_vector":"1"}},{"base_weights":[1.9478458E-1,-3.095941E-1,2.9807016E-2,-9.69E-1,7.5E-2,-2.965263E-2,-1.45E-2,2.204918E-1,-2.7254903E-1,-2.07E-2,3E-1,7.037037E-2,-6.36E-1,2.9016393E-3,1.5792454E-2,-2.5285713E-2,1.1285714E-2,-2.5105262E-2,-0E0],"categories":[],"categories_nodes":[],"categories_segments":[],"categories_sizes":[],"default_left":[0,0,0,0,0,0,0,0,0,0,0,0,0,0,0,0,0,0,0],"id":61,"left_children":[1,3,-1,5,7,-1,-1,9,11,-1,13,15,17,-1,-1,-1,-1,-1,-1],"loss_changes":[1.7805002E2,6.888866E1,0E0,3.1829834E-1,8.752161E0,0E0,0E0,8.99977E0,6.457672E0,0E0,5.087636E0,7.8110585E0,3.193389E0,0E0,0E0,0E0,0E0,0E0,0E0],"parents":[2147483647,0,0,1,1,3,3,4,4,7,7,8,8,10,10,11,11,12,12],"right_children":[2,4,-1,6,8,-1,-1,10,12,-1,14,16,18,-1,-1,-1,-1,-1,-1],"split_conditions":[1.6208445E7,7.001896E6,7.151862E4,3.459E3,5.249E3,-7.556949E4,-7.91967E3,3.7375635E-1,1.3223809E1,-4.2066E2,1.7131E7,2.06715E7,9.544E3,1.062E2,1.601115E3,-1.90821E3,1.386E3,-2.46627E3,2.1558E2],"split_indices":[4,4,0,0,0,0,0,31,3,0,7,7,1,0,0,0,0,0,0],"split_type":[0,0,0,0,0,0,0,0,0,0,0,0,0,0,0,0,0,0,0],"sum_hessian":[4.4E2,2.7E2,1.7E2,9.9E1,1.71E2,9.4E1,5E0,1.21E2,5E1,9E0,1.12E2,2.6E1,2.4E1,6E1,5.2E1,6E0,2E1,1.8E1,6E0],"tree_param":{"num_deleted":"0","num_feature":"33","num_nodes":"19","size_leaf_vector":"1"}},{"base_weights":[2.1685912E-1,-2.7886793E-1,2.9804733E-2,-2.9620688E-2,6.648045E-2,4.2941177E-1,-7.6744184E-2,-1.0875E-2,5.659091E-1,-0E0,-2.6999999E-2,2.2416666E-2,-6.3333334E-3,-1.7590908E-2,3.9489795E-3],"categories":[],"categories_nodes":[],"categories_segments":[],"categories_sizes":[],"default_left":[0,0,0,0,0,0,0,0,0,0,0,0,0,0,0],"id":62,"left_children":[1,3,-1,-1,5,7,9,-1,11,13,-1,-1,-1,-1,-1],"loss_changes":[1.6705243E2,6.499669E1,0E0,0E0,9.372767E0,5.73827E0,8.150232E0,0E0,6.4102516E0,9.262153E0,0E0,0E0,0E0,0E0,0E0],"parents":[2147483647,0,0,1,1,4,4,5,5,6,6,8,8,9,9],"right_children":[2,4,-1,-1,6,8,10,-1,12,14,-1,-1,-1,-1,-1],"split_conditions":[1.6257694E7,6.791182E6,7.003308E4,-7.183992E4,7.792335E6,3.504E3,1.3790476E1,-1.22847E3,6.13E2,1E0,-4.4802E2,1.18611E3,-2.2506E2,-1.53072E3,1.3236E2],"split_indices":[4,4,0,0,4,0,3,0,2,6,0,0,0,0,0],"split_type":[0,0,0,0,0,0,0,0,0,0,0,0,0,0,0],"sum_hessian":[4.32E2,2.64E2,1.68E2,8.6E1,1.78E2,5E1,1.28E2,7E0,4.3E1,1.18E2,1E1,3.5E1,8E0,2.1E1,9.7E1],"tree_param":{"num_deleted":"0","num_feature":"33","num_nodes":"15","size_leaf_vector":"1"}},{"base_weights":[1.9466357E-1,-2.869403E-1,9.810976E-1,-2.9629212E-2,6.0555555E-2,1.6714286E-2,2.9791139E-2,7.1666664E-1,-1.1656442E-2,2.7461536E-2,4.5000003E-3,-3.9714286E-1,9.224806E-2,1.6714286E-2,-1.851724E-2,1.1953847E-2,-6.4153844E-3],"categories":[],"categories_nodes":[],"categories_segments":[],"categories_sizes":[],"default_left":[0,0,0,0,0,0,0,0,0,0,0,0,0,0,0,0,0],"id":63,"left_children":[1,3,5,-1,7,-1,-1,9,11,-1,-1,13,15,-1,-1,-1,-1],"loss_changes":[1.6359203E2,6.540794E1,1.21902466E-1,0E0,8.607092E0,0E0,0E0,1.7830772E0,6.595891E0,0E0,0E0,7.7011924E0,1.2194864E1,0E0,0E0,0E0,0E0],"parents":[2147483647,0,0,1,1,2,2,4,4,7,7,8,8,11,11,12,12],"right_children":[2,4,6,-1,8,-1,-1,10,12,-1,-1,14,16,-1,-1,-1,-1],"split_conditions":[8.372E3,3.459E3,8.426E3,-6.968472E4,1.9934736E6,3.01272E3,6.8382055E4,1.3487142E-1,1.43155E7,1.1861699E3,6.5301E2,9.433E6,5.874E3,6.4802997E2,-1.20414E3,1.02483E3,-2.8521E2],"split_indices":[0,0,0,0,18,0,0,32,8,0,0,8,1,0,0,0,0],"split_type":[0,0,0,0,0,0,0,0,0,0,0,0,0,0,0,0,0],"sum_hessian":[4.3E2,2.67E2,1.63E2,8.8E1,1.79E2,6E0,1.57E2,1.7E1,1.62E2,1.2E1,5E0,3.4E1,1.28E2,6E0,2.8E1,6.4E1,6.4E1],"tree_param":{"num_deleted":"0","num_feature":"33","num_nodes":"17","size_leaf_vector":"1"}},{"base_weights":[1.8939053E-1,-2.8381294E-1,9.813253E-1,-2.9592592E-2,4.5454544E-3,1.6714286E-2,2.979375E-2,1.2434211E-1,-3.8085106E-1,2.6999999E-2,6.267606E-2,-1.6857143E-1,-2.7461536E-2,1.0170732E-2,-1.4411765E-3,-8.9E-3,1.45E-2],"categories":[],"categories_nodes":[],"categories_segments":[],"categories_sizes":[],"default_left":[0,0,0,0,0,0,0,0,0,0,0,0,0,0,0,0,0],"id":64,"left_children":[1,3,5,-1,7,-1,-1,9,11,-1,13,15,-1,-1,-1,-1,-1],"loss_changes":[1.6636087E2,5.642618E1,1.22528076E-1,0E0,9.163208E0,0E0,0E0,7.1177506E0,5.0704145E0,0E0,4.390014E0,3.0474284E0,0E0,0E0,0E0,0E0,0E0],"parents":[2147483647,0,0,1,1,2,2,4,4,7,7,8,8,10,10,11,11],"right_children":[2,4,6,-1,8,-1,-1,10,12,-1,14,16,-1,-1,-1,-1,-1],"split_conditions":[8.372E3,3.361E3,8.413E3,-6.859167E4,7.3201625E6,1.97523E3,6.5130598E4,1.0423E7,9.19E2,1.375845E3,3.953E3,2.07795E7,-2.84022E3,5.6982E2,-1.2059999E1,-2.0256E2,1.58208E3],"split_indices":[0,0,0,0,14,0,0,12,2,0,0,16,0,0,0,0,0],"split_type":[0,0,0,0,0,0,0,0,0,0,0,0,0,0,0,0,0],"sum_hessian":[4.42E2,2.77E2,1.65E2,8E1,1.97E2,6E0,1.59E2,1.51E2,4.6E1,1E1,1.41E2,3.4E1,1.2E1,4E1,1.01E2,2.9E1,5E0],"tree_param":{"num_deleted":"0","num_feature":"33","num_nodes":"17","size_leaf_vector":"1"}},{"base_weights":[1.2850575E-1,-3.7326008E-1,9.687117E-1,-2.9607141E-2,-9.9473685E-2,1.47E-2,2.9785713E-2,2.5875E-2,-1.4153005E-1,4.9285713E-1,-1.9352941E-1,2.5875E-2,-0E0,-1.4939999E-2,-1.9586778E-3],"categories":[],"categories_nodes":[],"categories_segments":[],"categories_sizes":[],"default_left":[0,0,0,0,0,0,0,0,0,0,0,0,0,0,0],"id":65,"left_children":[1,3,5,-1,7,-1,-1,-1,9,11,13,-1,-1,-1,-1],"loss_changes":[1.838113E2,4.5659256E1,1.2492981E0,0E0,7.736826E0,0E0,0E0,0E0,6.1022034E0,2.5505357E0,6.548867E0,0E0,0E0,0E0,0E0],"parents":[2147483647,0,0,1,1,2,2,4,4,8,8,9,9,10,10],"right_children":[2,4,6,-1,8,-1,-1,-1,10,12,14,-1,-1,-1,-1],"split_conditions":[8.302E3,3.332E3,8.413E3,-7.113891E4,9.7025E6,1.0624199E3,7.5146695E4,2.19273E3,1.02105E7,1.3374761E-1,1.43155E7,2.56773E3,5.7093E2,-1.17999E3,-2.646E1],"split_indices":[0,0,0,0,7,0,0,0,12,32,8,0,0,0,0],"split_type":[0,0,0,0,0,0,0,0,0,0,0,0,0,0,0],"sum_hessian":[4.34E2,2.72E2,1.62E2,8.3E1,1.89E2,9E0,1.53E2,7E0,1.82E2,1.3E1,1.69E2,7E0,6E0,4.9E1,1.2E2],"tree_param":{"num_deleted":"0","num_feature":"33","num_nodes":"15","size_leaf_vector":"1"}},{"base_weights":[1.787472E-1,-3.173285E-1,9.8187137E-1,-2.9620688E-2,-9.947644E-3,1.6714286E-2,2.98E-2,6.36E-1,-1.0718563E-1,-4.5000003E-3,8.45E-1,3.5135135E-2,-3.8421053E-1,1.45E-2,2.78E-2,-4.6363636E-3,1.3628571E-2,-1.809091E-2,-2.28E-3],"categories":[],"categories_nodes":[],"categories_segments":[],"categories_sizes":[],"default_left":[0,0,0,0,0,0,0,0,0,0,0,0,0,0,0,0,0,0,0],"id":66,"left_children":[1,3,5,-1,7,-1,-1,9,11,-1,13,15,17,-1,-1,-1,-1,-1,-1],"loss_changes":[1.7846747E2,5.6939632E1,1.2399292E-1,0E0,1.2012122E1,0E0,0E0,4.3030996E0,6.632614E0,0E0,1.8339157E-3,8.925207E0,3.7304926E0,0E0,0E0,0E0,0E0,0E0,0E0],"parents":[2147483647,0,0,1,1,2,2,4,4,7,7,8,8,10,10,11,11,12,12],"right_children":[2,4,6,-1,8,-1,-1,10,12,-1,14,16,18,-1,-1,-1,-1,-1,-1],"split_conditions":[8.372E3,6.64645E6,8.413E3,-6.851724E4,1.2884119E7,1.88409E3,6.920982E4,3.7667406E-1,3.3527E7,-9.36E0,3.592E3,5E0,3.9003357E-1,9.3125995E2,1.346475E3,-3.79125E2,8.2356E2,-3.828E2,-4.7114998E1],"split_indices":[0,4,0,0,21,0,0,31,15,0,0,25,31,0,0,0,0,0,0],"split_type":[0,0,0,0,0,0,0,0,0,0,0,0,0,0,0,0,0,0,0],"sum_hessian":[4.46E2,2.76E2,1.7E2,8.6E1,1.9E2,6E0,1.64E2,2.4E1,1.66E2,5E0,1.9E1,1.1E2,5.6E1,5E0,1.4E1,7.6E1,3.4E1,3.2E1,2.4E1],"tree_param":{"num_deleted":"0","num_feature":"33","num_nodes":"19","size_leaf_vector":"1"}},{"base_weights":[1.8939053E-1,-2.6487455E-1,9.569697E-1,-2.959756E-2,3.4848485E-2,1.47E-2,9.801282E-1,1.6950354E-1,-2.913793E-1,1.45E-2,2.9781457E-2,3.9382717E-1,-1.295082E-1,-1.4375E-1,-2.6999999E-2,3.675E-3,1.9214284E-2,9.315789E-3,-9.697674E-3,-1.8166665E-2,3.7741933E-3],"categories":[],"categories_nodes":[],"categories_segments":[],"categories_sizes":[],"default_left":[0,0,0,0,0,0,0,0,0,0,0,0,0,0,0,0,0,0,0,0,0],"id":67,"left_children":[1,3,5,-1,7,-1,9,11,13,-1,-1,15,17,19,-1,-1,-1,-1,-1,-1,-1],"loss_changes":[1.5478989E2,6.0480984E1,1.1570892E0,0E0,8.73499E0,0E0,3.480835E-1,9.535067E0,4.9775643E0,0E0,0E0,5.265973E0,5.3022466E0,6.0993257E0,0E0,0E0,0E0,0E0,0E0,0E0,0E0],"parents":[2147483647,0,0,1,1,2,2,4,4,6,6,7,7,8,8,11,11,12,12,13,13],"right_children":[2,4,6,-1,8,-1,10,12,14,-1,-1,16,18,20,-1,-1,-1,-1,-1,-1,-1],"split_conditions":[8.372E3,3.332E3,8.445E3,-7.525923E4,3.3556E7,2.0090399E3,1.6275E7,1.3245238E1,1.3967925E-1,1.879602E4,6.387102E4,6.29E2,6.36E2,1.2E1,-1.475715E3,4.6241998E2,1.38522E3,3.4449E2,-3.498E2,-6.2489996E2,2.64345E2],"split_indices":[0,0,0,0,15,0,9,3,32,0,0,2,2,29,0,0,0,0,0,0,0],"split_type":[0,0,0,0,0,0,0,0,0,0,0,0,0,0,0,0,0,0,0,0,0],"sum_hessian":[4.42E2,2.78E2,1.64E2,8.1E1,1.97E2,9E0,1.55E2,1.4E2,5.7E1,5E0,1.5E2,8E1,6E1,4.7E1,1E1,3.9E1,4.1E1,1.8E1,4.2E1,1.7E1,3E1],"tree_param":{"num_deleted":"0","num_feature":"33","num_nodes":"21","size_leaf_vector":"1"}},{"base_weights":[2.2250581E-1,-2.2673993E-1,2.9792452E-2,-2.9565789E-2,6.515151E-2,5.173077E-1,-9.455782E-2,6.488372E-1,-2.7E-3,-4.8378378E-1,3.5135135E-2,1.2136363E-2,2.5772728E-2,8.142858E-3,-1.9258063E-2,1.1522727E-2,-5.6911763E-3],"categories":[],"categories_nodes":[],"categories_segments":[],"categories_sizes":[],"default_left":[0,0,0,0,0,0,0,0,0,0,0,0,0,0,0,0,0],"id":68,"left_children":[1,3,-1,-1,5,7,9,11,-1,13,15,-1,-1,-1,-1,-1,-1],"loss_changes":[1.4950452E2,6.062117E1,0E0,0E0,1.4389477E1,4.2679806E0,7.482403E0,1.7347145E0,0E0,4.630501E0,8.801315E0,0E0,0E0,0E0,0E0,0E0,0E0],"parents":[2147483647,0,0,1,1,4,4,5,5,6,6,7,7,9,9,10,10],"right_children":[2,4,-1,-1,6,8,10,12,-1,14,16,-1,-1,-1,-1,-1,-1],"split_conditions":[1.6398477E7,6.655507E6,5.941986E4,-6.653286E4,3.912E3,4E0,1.7131E7,1.1338E7,-2.2949999E1,8.603E6,2.7514572E7,8.9301E2,1.23963E3,1.86315E2,-1.228275E3,8.5866E2,-1.0632E2],"split_indices":[4,4,0,0,0,25,7,8,0,16,13,0,0,0,0,0,0],"split_type":[0,0,0,0,0,0,0,0,0,0,0,0,0,0,0,0,0],"sum_hessian":[4.3E2,2.72E2,1.58E2,7.5E1,1.97E2,5.1E1,1.46E2,4.2E1,9E0,3.6E1,1.1E2,2.1E1,2.1E1,6E0,3E1,4.3E1,6.7E1],"tree_param":{"num_deleted":"0","num_feature":"33","num_nodes":"17","size_leaf_vector":"1"}},{"base_weights":[1.5630841E-1,-3.076087E-1,2.9784312E-2,-2.9547945E-2,-6.32353E-2,3.0888888E-1,-1.68125E-1,-2.45E-2,4.725E-1,-2.7461536E-2,-1.0067567E-1,2.452941E-2,6.125E-3,1.47857135E-2,-4.8666666E-3],"categories":[],"categories_nodes":[],"categories_segments":[],"categories_sizes":[],"default_left":[0,0,0,0,0,0,0,0,0,0,0,0,0,0,0],"id":69,"left_children":[1,3,-1,-1,5,7,9,-1,11,-1,13,-1,-1,-1,-1],"loss_changes":[1.6646686E2,4.551633E1,0E0,0E0,8.000383E0,8.638361E0,7.870582E0,0E0,3.435461E0,0E0,5.453314E0,0E0,0E0,0E0,0E0],"parents":[2147483647,0,0,1,1,4,4,5,5,6,6,8,8,10,10],"right_children":[2,4,-1,-1,6,8,10,-1,12,-1,14,-1,-1,-1,-1],"split_conditions":[1.6425957E7,6.592506E6,6.0172258E4,-6.398547E4,4.439E3,1.818975E6,1.028E7,-7.3520996E2,1.5361E7,-1.83645E3,9.067E6,1.4447849E3,4.3559998E2,3.0108E2,-1.0917E2],"split_indices":[4,4,0,0,1,22,9,0,19,0,16,0,0,0,0],"split_type":[0,0,0,0,0,0,0,0,0,0,0,0,0,0,0],"sum_hessian":[4.27E2,2.75E2,1.52E2,7.2E1,2.03E2,4.4E1,1.59E2,5E0,3.9E1,1.2E1,1.47E2,1.6E1,2.3E1,1.3E1,1.34E2],"tree_param":{"num_deleted":"0","num_feature":"33","num_nodes":"15","size_leaf_vector":"1"}},{"base_weights":[1.7289294E-1,-2.548951E-1,9.668831E-1,-2.9571427E-2,1.3809524E-2,1.0875E-2,2.977551E-2,5.942308E-1,-1.754717E-1,6.787234E-1,-4.5000003E-3,-6.2204726E-2,-6.030303E-1,6.2142857E-3,2.55E-2,2.925926E-3,-1.0148936E-2,-2.6279999E-2,6.3333334E-3],"categories":[],"categories_nodes":[],"categories_segments":[],"categories_sizes":[],"default_left":[0,0,0,0,0,0,0,0,0,0,0,0,0,0,0,0,0,0,0],"id":70,"left_children":[1,3,5,-1,7,-1,-1,9,11,13,-1,15,17,-1,-1,-1,-1,-1,-1],"loss_changes":[1.4942818E2,5.6273903E1,1.8905792E0,0E0,2.3217344E1,0E0,0E0,3.4245453E0,7.59606E0,3.5144386E0,0E0,5.658013E0,7.585207E0,0E0,0E0,0E0,0E0,0E0,0E0],"parents":[2147483647,0,0,1,1,2,2,4,4,7,7,8,8,9,9,11,11,12,12],"right_children":[2,4,6,-1,8,-1,-1,10,12,14,-1,16,18,-1,-1,-1,-1,-1,-1],"split_conditions":[1.6425957E7,6.461248E6,9.744E3,-7.076592E4,4.439E3,3.14598E3,6.77571E4,6.13E2,9.233E3,6.777242E6,-1.2561E2,2.8282738E7,2.3E1,4.2252E2,1.19625E3,4.6184998E1,-1.6518E2,-1.19664E3,8.8932E2],"split_indices":[4,4,1,0,1,0,0,2,1,4,0,21,29,0,0,0,0,0,0],"split_type":[0,0,0,0,0,0,0,0,0,0,0,0,0,0,0,0,0,0,0],"sum_hessian":[4.38E2,2.85E2,1.53E2,7.6E1,2.09E2,7E0,1.46E2,5.1E1,1.58E2,4.6E1,5E0,1.26E2,3.2E1,1.3E1,3.3E1,8E1,4.6E1,2.4E1,8E0],"tree_param":{"num_deleted":"0","num_feature":"33","num_nodes":"19","size_leaf_vector":"1"}},{"base_weights":[1.8452656E-1,-2.3391609E-1,2.9777026E-2,-2.9528571E-2,8.75576E-3,1.522293E-1,-3.590164E-1,2.67E-2,1.0067567E-1,2.8125E-2,-7.633333E-1,-1.5E-3,1.1705882E-2,-9.4090905E-3,2.1545453E-2,-2.595652E-2,-1.0875E-2],"categories":[],"categories_nodes":[],"categories_segments":[],"categories_sizes":[],"default_left":[0,0,0,0,0,0,0,0,0,0,0,0,0,0,0,0,0],"id":71,"left_children":[1,3,-1,-1,5,7,9,-1,11,13,15,-1,-1,-1,-1,-1,-1],"loss_changes":[1.4671349E2,5.2184937E1,0E0,0E0,1.1484103E1,5.782787E0,9.643187E0,0E0,6.5098343E0,7.812415E0,7.88744E-1,0E0,0E0,0E0,0E0,0E0,0E0],"parents":[2147483647,0,0,1,1,4,4,5,5,6,6,8,8,9,9,10,10],"right_children":[2,4,-1,-1,6,8,10,-1,12,14,16,-1,-1,-1,-1,-1,-1],"split_conditions":[1.6519189E7,3.244E3,6.105936E4,-7.077294E4,8.3E2,9.742E6,2.7294524E7,1.30209E3,1.84955E7,1.6932E7,1.6257694E7,-1.30199995E1,1.03623E3,-3.9228E2,1.08216E3,-1.3290599E3,-1.23228E3],"split_indices":[4,0,0,0,2,7,21,0,7,16,4,0,0,0,0,0,0],"split_type":[0,0,0,0,0,0,0,0,0,0,0,0,0,0,0,0,0],"sum_hessian":[4.32E2,2.85E2,1.47E2,6.9E1,2.16E2,1.56E2,6E1,9E0,1.47E2,3.1E1,2.9E1,9.7E1,5E1,2.1E1,1E1,2.2E1,7E0],"tree_param":{"num_deleted":"0","num_feature":"33","num_nodes":"17","size_leaf_vector":"1"}},{"base_weights":[1.2791762E-1,-2.7391306E-1,2.976259E-2,-9.621951E-1,-1.3302753E-2,-2.9571427E-2,-1.45E-2,1.7008547E-1,-2.245098E-1,1.1727273E-1,2.5875E-2,-0E0,-5.452381E-1,5.1142853E-3,-2.45E-2,-4.14E-3,1.725E-2,-2.2899998E-2,-0E0],"categories":[],"categories_nodes":[],"categories_segments":[],"categories_sizes":[],"default_left":[0,0,0,0,0,0,0,0,0,0,0,0,0,0,0,0,0,0,0],"id":72,"left_children":[1,3,-1,5,7,-1,-1,9,11,13,-1,15,17,-1,-1,-1,-1,-1,-1],"loss_changes":[1.5209158E2,5.3522293E1,0E0,3.0017853E-1,8.487397E0,0E0,0E0,4.0793676E0,7.344677E0,5.540372E0,0E0,4.9197E0,4.994382E0,0E0,0E0,0E0,0E0,0E0,0E0],"parents":[2147483647,0,0,1,1,3,3,4,4,7,7,8,8,9,9,11,11,12,12],"right_children":[2,4,-1,6,8,-1,-1,10,12,14,-1,16,18,-1,-1,-1,-1,-1,-1],"split_conditions":[1.6519189E7,6.461248E6,5.552256E4,3.181E3,6.6085615E6,-6.620475E4,-3.9475498E3,3.1839E7,8.82E2,2.7933928E7,1.6335599E3,1.84405E7,2.3E1,3.06945E2,-8.532E1,-2.7E1,1.5495E3,-1.36926E3,-3.0666E2],"split_indices":[4,4,0,0,14,0,0,7,2,13,0,16,29,0,0,0,0,0,0],"split_type":[0,0,0,0,0,0,0,0,0,0,0,0,0,0,0,0,0,0,0],"sum_hessian":[4.36E2,2.98E2,1.38E2,8.1E1,2.17E2,7.6E1,5E0,1.16E2,1.01E2,1.09E2,7E0,6E1,4.1E1,1.04E2,5E0,4.9E1,1.1E1,2.9E1,1.2E1],"tree_param":{"num_deleted":"0","num_feature":"33","num_nodes":"19","size_leaf_vector":"1"}},{"base_weights":[2.2788018E-1,-1.721831E-1,9.794702E-1,-2.952174E-2,8.75E-2,1.6714286E-2,2.9772414E-2,2.0282486E-1,-4.225E-1,4.5737705E-1,6.752137E-2,-5E-2,-6.913043E-1,-1.0875E-2,1.7166667E-2,-1.6999999E-2,6.154639E-3,-1.225E-2,1.6714286E-2,-8.699999E-3,-2.7642855E-2],"categories":[],"categories_nodes":[],"categories_segments":[],"categories_sizes":[],"default_left":[0,0,0,0,0,0,0,0,0,0,0,0,0,0,0,0,0,0,0,0,0],"id":73,"left_children":[1,3,5,-1,7,-1,-1,9,11,13,15,17,19,-1,-1,-1,-1,-1,-1,-1,-1],"loss_changes":[1.3074605E2,6.005153E1,1.1755371E-1,0E0,1.2767912E1,0E0,0E0,6.0128255E0,3.8964896E0,5.9720984E0,1.0292492E1,4.1286902E0,1.7356892E0,0E0,0E0,0E0,0E0,0E0,0E0,0E0,0E0],"parents":[2147483647,0,0,1,1,2,2,4,4,7,7,8,8,9,9,10,10,11,11,12,12],"right_children":[2,4,6,-1,8,-1,-1,10,12,14,16,18,20,-1,-1,-1,-1,-1,-1,-1,-1],"split_conditions":[8.553E3,3.181E3,8.576E3,-6.66336E4,2.8692642E7,1.1541899E4,6.31944E4,3.953E3,8.03E2,1.818975E6,1.4994E7,1.84375E7,3.1335E7,-4.491E1,8.8733997E2,-1.43094E3,5.1989996E2,-1.7951999E2,5.24832E3,-6.723E2,-2.9805E3],"split_indices":[0,0,0,0,17,0,0,0,2,22,9,16,7,0,0,0,0,0,0,0,0],"split_type":[0,0,0,0,0,0,0,0,0,0,0,0,0,0,0,0,0,0,0,0,0],"sum_hessian":[4.33E2,2.83E2,1.5E2,6.8E1,2.15E2,6E0,1.44E2,1.76E2,3.9E1,6E1,1.16E2,1.7E1,2.2E1,7E0,5.3E1,2E1,9.6E1,1.1E1,6E0,9E0,1.3E1],"tree_param":{"num_deleted":"0","num_feature":"33","num_nodes":"21","size_leaf_vector":"1"}},{"base_weights":[1.6412038E-1,-2.4020618E-1,2.9767606E-2,-2.9547945E-2,8.675799E-3,4.8378378E-1,-8.688524E-2,-1.6714286E-2,7.064516E-1,-4.011628E-2,-2.225E-2,2.6423076E-2,-4.5000003E-3,1.29375E-2,-2.656051E-3],"categories":[],"categories_nodes":[],"categories_segments":[],"categories_sizes":[],"default_left":[0,0,0,0,0,0,0,0,0,0,0,0,0,0,0],"id":74,"left_children":[1,3,-1,-1,5,7,9,-1,11,13,-1,-1,-1,-1,-1],"loss_changes":[1.4496278E2,5.404265E1,0E0,0E0,1.0024721E1,8.984416E0,5.4961605E0,0E0,4.8333254E0,3.9294598E0,0E0,0E0,0E0,0E0,0E0],"parents":[2147483647,0,0,1,1,4,4,5,5,6,6,8,8,9,9],"right_children":[2,4,-1,-1,6,8,10,-1,12,14,-1,-1,-1,-1,-1],"split_conditions":[1.6564645E7,3.244E3,5.566608E4,-6.349458E4,4.24E3,1.818975E6,1.4616252E-1,-5.97E2,4E0,8.603E6,-2.5536E2,1.08777E3,-3.2124E3,3.2478E2,-8.0759995E1],"split_indices":[4,0,0,0,1,22,32,0,25,16,0,0,0,0,0],"split_type":[0,0,0,0,0,0,0,0,0,0,0,0,0,0,0],"sum_hessian":[4.31E2,2.9E2,1.41E2,7.2E1,2.18E2,3.6E1,1.82E2,6E0,3E1,1.71E2,1.1E1,2.5E1,5E0,1.5E1,1.56E2],"tree_param":{"num_deleted":"0","num_feature":"33","num_nodes":"15","size_leaf_vector":"1"}},{"base_weights":[1.510965E-1,-2.321656E-1,2.9769229E-2,-2.9576922E-2,1.6455697E-2,3.635135E-1,-1.3963415E-1,5.063492E-1,-4.0833333E-1,-5.25E-1,-3.0232558E-2,-1.0875E-2,1.869643E-2,4.5000003E-3,-2.5285713E-2,8.142858E-3,-2.09E-2,1.1678571E-2,-4.382353E-3],"categories":[],"categories_nodes":[],"categories_segments":[],"categories_sizes":[],"default_left":[0,0,0,0,0,0,0,0,0,0,0,0,0,0,0,0,0,0,0],"id":75,"left_children":[1,3,-1,-1,5,7,9,11,13,15,17,-1,-1,-1,-1,-1,-1,-1,-1],"loss_changes":[1.4732278E2,5.895482E1,0E0,0E0,1.2911958E1,8.374861E0,6.8427844E0,6.6488895E0,3.1070244E0,5.1535482E0,6.3018756E0,0E0,0E0,0E0,0E0,0E0,0E0,0E0,0E0],"parents":[2147483647,0,0,1,1,4,4,5,5,6,6,7,7,8,8,9,9,10,10],"right_children":[2,4,-1,-1,6,8,10,12,14,16,18,-1,-1,-1,-1,-1,-1,-1,-1],"split_conditions":[1.658655E7,3.244E3,5.8916098E4,-6.371973E4,7.792335E6,6.13E2,3.8231114E-1,1.818975E6,8.8255E6,4E0,3.86577E-1,-7.386E2,6.7947E2,1.5809999E1,-2.001315E3,1.14639E3,-9.195E2,1.4526599E3,-1.1736E2],"split_indices":[4,0,0,0,4,2,31,22,24,26,31,0,0,0,0,0,0,0,0],"split_type":[0,0,0,0,0,0,0,0,0,0,0,0,0,0,0,0,0,0,0],"sum_hessian":[4.55E2,3.13E2,1.42E2,7.7E1,2.36E2,7.3E1,1.63E2,6.2E1,1.1E1,3.5E1,1.28E2,7E0,5.5E1,5E0,6E0,6E0,2.9E1,2.7E1,1.01E2],"tree_param":{"num_deleted":"0","num_feature":"33","num_nodes":"19","size_leaf_vector":"1"}},{"base_weights":[1.7692308E-1,-2.2110726E-1,2.9765956E-2,-2.9541666E-2,3.1651378E-2,3.8703704E-1,-8.4242426E-2,4.877551E-1,-1.45E-2,-2.38E-2,-1.2582782E-2,-3.3749999E-3,1.7785713E-2,1.4785713E-3,-2.225E-2],"categories":[],"categories_nodes":[],"categories_segments":[],"categories_sizes":[],"default_left":[0,0,0,0,0,0,0,0,0,0,0,0,0,0,0],"id":76,"left_children":[1,3,-1,-1,5,7,9,11,-1,-1,13,-1,-1,-1,-1],"loss_changes":[1.3950887E2,5.590644E1,0E0,0E0,9.04165E0,4.96994E0,8.293605E0,3.2060452E0,0E0,0E0,6.9169974E0,0E0,0E0,0E0,0E0],"parents":[2147483647,0,0,1,1,4,4,5,5,6,6,7,7,10,10],"right_children":[2,4,-1,-1,6,8,10,12,-1,-1,14,-1,-1,-1,-1],"split_conditions":[1.6649911E7,6.375144E6,5.3166117E4,-6.273813E4,4.439E3,6.13E2,1.028E7,1.0976643E7,-2.4811199E3,-1.43094E3,3.8955E7,-7.1643E2,6.591E2,1.644E1,-5.7107397E3],"split_indices":[4,4,0,0,1,2,9,17,0,0,15,0,0,0,0],"split_type":[0,0,0,0,0,0,0,0,0,0,0,0,0,0,0],"sum_hessian":[4.28E2,2.88E2,1.4E2,7.1E1,2.17E2,5.3E1,1.64E2,4.8E1,5E0,1.4E1,1.5E2,7E0,4.1E1,1.39E2,1.1E1],"tree_param":{"num_deleted":"0","num_feature":"33","num_nodes":"15","size_leaf_vector":"1"}},{"base_weights":[1.5311112E-1,-2.4229509E-1,9.787671E-1,-2.9528571E-2,-2.0762712E-2,1.45E-2,2.9765956E-2,3.7118644E-1,-1.511236E-1,-1.0875E-2,4.7884616E-1,-6.387097E-2,-7.0416665E-1,1.9657895E-2,-0E0,-1.1705882E-2,2.8285712E-3,-4.5000003E-3,-2.5105262E-2],"categories":[],"categories_nodes":[],"categories_segments":[],"categories_sizes":[],"default_left":[0,0,0,0,0,0,0,0,0,0,0,0,0,0,0,0,0,0,0],"id":77,"left_children":[1,3,5,-1,7,-1,-1,9,11,-1,13,15,17,-1,-1,-1,-1,-1,-1],"loss_changes":[1.4722208E2,5.0013412E1,3.444214E-1,0E0,1.209247E1,0E0,0E0,4.845537E0,8.467514E0,0E0,4.392784E0,8.066009E0,1.5403728E0,0E0,0E0,0E0,0E0,0E0,0E0],"parents":[2147483647,0,0,1,1,2,2,4,4,7,7,8,8,10,10,11,11,12,12],"right_children":[2,4,6,-1,8,-1,-1,10,12,-1,14,16,18,-1,-1,-1,-1,-1,-1],"split_conditions":[1.6713341E7,6.234834E6,1.674146E7,-5.896599E4,4.439E3,9.1722E2,5.730114E4,1.818975E6,1.4069897E-1,-2.325E1,1.51275E7,1.78465E7,1.6E1,6.3932996E2,-6.75165E2,-2.34E2,3.4608E2,-2.6699999E1,-1.28835E3],"split_indices":[4,4,4,0,1,0,0,22,32,0,11,7,27,0,0,0,0,0,0],"split_type":[0,0,0,0,0,0,0,0,0,0,0,0,0,0,0,0,0,0,0],"sum_hessian":[4.49E2,3.04E2,1.45E2,6.9E1,2.35E2,5E0,1.4E2,5.8E1,1.77E2,7E0,5.1E1,1.54E2,2.3E1,3.7E1,1.4E1,5E1,1.04E2,5E0,1.8E1],"tree_param":{"num_deleted":"0","num_feature":"33","num_nodes":"19","size_leaf_vector":"1"}},{"base_weights":[1.6293706E-1,-2.016835E-1,9.766917E-1,-2.953521E-2,4.3612335E-2,1.45E-2,2.9742187E-2,3.9482757E-1,-7.588235E-2,-1.0875E-2,5.0784314E-1,-5.375E-1,-0E0,-1.45E-2,1.8847825E-2,6.3333334E-3,-2.7937498E-2,6.6724136E-3,-4.2999997E-3],"categories":[],"categories_nodes":[],"categories_segments":[],"categories_sizes":[],"default_left":[0,0,0,0,0,0,0,0,0,0,0,0,0,0,0,0,0,0,0],"id":78,"left_children":[1,3,5,-1,7,-1,-1,9,11,-1,13,15,17,-1,-1,-1,-1,-1,-1],"loss_changes":[1.275638E2,5.716796E1,3.388672E-1,0E0,9.588673E0,0E0,0E0,5.162836E0,5.954868E0,0E0,6.4052696E0,7.342985E0,4.718138E0,0E0,0E0,0E0,0E0,0E0,0E0],"parents":[2147483647,0,0,1,1,2,2,4,4,7,7,8,8,10,10,11,11,12,12],"right_children":[2,4,6,-1,8,-1,-1,10,12,-1,14,16,18,-1,-1,-1,-1,-1,-1],"split_conditions":[1.6713341E7,6.186233E6,1.6752042E7,-5.7677008E4,4.439E3,8.8968E2,5.438958E4,1.818975E6,1.4011E7,-2.256E1,3.079E3,1.3472E7,9.841685E6,-1.9401599E3,6.1151996E2,1.16286E3,-1.30794E3,4.6259998E2,-3.1122E2],"split_indices":[4,4,4,0,1,0,0,22,9,0,0,10,4,0,0,0,0,0,0],"split_type":[0,0,0,0,0,0,0,0,0,0,0,0,0,0,0,0,0,0,0],"sum_hessian":[4.28E2,2.96E2,1.32E2,7E1,2.26E2,5E0,1.27E2,5.7E1,1.69E2,7E0,5E1,2.3E1,1.46E2,5E0,4.5E1,8E0,1.5E1,5.7E1,8.9E1],"tree_param":{"num_deleted":"0","num_feature":"33","num_nodes":"19","size_leaf_vector":"1"}},{"base_weights":[1.7610209E-1,-2.3391609E-1,9.787671E-1,-2.9467741E-2,-2.6222222E-2,1.45E-2,2.9765956E-2,4.3658537E-1,-1.291892E-1,-8.699999E-3,6.53125E-1,1.6714286E-2,-1.5586592E-1,2.5772728E-2,5.1818183E-3,-3.3749999E-3,-2.225E-2],"categories":[],"categories_nodes":[],"categories_segments":[],"categories_sizes":[],"default_left":[0,0,0,0,0,0,0,0,0,0,0,0,0,0,0,0,0],"id":79,"left_children":[1,3,5,-1,7,-1,-1,9,11,-1,13,-1,15,-1,-1,-1,-1],"loss_changes":[1.4214867E2,4.432524E1,3.444214E-1,0E0,1.0747789E1,0E0,0E0,6.676434E0,3.4338942E0,0E0,2.914688E0,0E0,4.378424E0,0E0,0E0,0E0,0E0],"parents":[2147483647,0,0,1,1,2,2,4,4,7,7,8,8,10,10,12,12],"right_children":[2,4,6,-1,8,-1,-1,10,12,-1,14,-1,16,-1,-1,-1,-1],"split_conditions":[1.6713341E7,6.234834E6,3.775543E-1,-5.54667E4,4.24E3,1.8122879E4,5.194788E4,1.1877E7,9.4175E6,-1.0875E3,3E1,1.952595E3,8.817932E6,9.0324E2,4.07805E2,-1.0779E2,-1.20537E3],"split_indices":[4,4,31,0,1,0,0,12,12,0,27,0,14,0,0,0,0],"split_type":[0,0,0,0,0,0,0,0,0,0,0,0,0,0,0,0,0],"sum_hessian":[4.3E2,2.85E2,1.45E2,6.1E1,2.24E2,5E0,1.4E2,4E1,1.84E2,9E0,3.1E1,6E0,1.78E2,2.1E1,1E1,1.67E2,1.1E1],"tree_param":{"num_deleted":"0","num_feature":"33","num_nodes":"17","size_leaf_vector":"1"}},{"base_weights":[1.4964871E-1,-2.0165563E-1,2.9738095E-2,-2.9459016E-2,-3.7190083E-3,2.2846153E-2,-4.7391303E-2,2.2394367E-1,-1.68125E-1,-1.6714286E-2,9.184615E-3,-2.41875E-2,-2.875862E-3],"categories":[],"categories_nodes":[],"categories_segments":[],"categories_sizes":[],"default_left":[0,0,0,0,0,0,0,0,0,0,0,0,0],"id":80,"left_children":[1,3,-1,-1,5,-1,7,9,11,-1,-1,-1,-1],"loss_changes":[1.2652787E2,4.654235E1,0E0,0E0,8.052448E0,0E0,7.566702E0,4.7046146E0,7.210546E0,0E0,0E0,0E0,0E0],"parents":[2147483647,0,0,1,1,4,4,6,6,7,7,8,8],"right_children":[2,4,-1,-1,6,-1,8,10,12,-1,-1,-1,-1],"split_conditions":[1.6841906E7,3.097E3,5.3734438E4,-5.7357688E4,1.02105E7,1.44534E3,7.792335E6,1.818975E6,1.45435E7,-3.5496E2,3.32505E2,-1.61745E3,-4.902E1],"split_indices":[4,0,0,0,12,0,4,22,8,0,0,0,0],"split_type":[0,0,0,0,0,0,0,0,0,0,0,0,0],"sum_hessian":[4.26E2,3.01E2,1.25E2,6E1,2.41E2,1.2E1,2.29E2,7E1,1.59E2,6E0,6.4E1,1.5E1,1.44E2],"tree_param":{"num_deleted":"0","num_feature":"33","num_nodes":"13","size_leaf_vector":"1"}},{"base_weights":[1.4229885E-1,-2.3791946E-1,9.6304345E-1,-2.9484374E-2,-3.361702E-2,1.47E-2,2.9744184E-2,3.590164E-1,-1.7085715E-1,5.0784314E-1,-3.5454544E-1,1.9666666E-2,-2.1497007E-1,-1.3E-2,2.0860465E-2,4.5000003E-3,-2.45E-2,-2.0739129E-2,-4.117241E-3],"categories":[],"categories_nodes":[],"categories_segments":[],"categories_sizes":[],"default_left":[0,0,0,0,0,0,0,0,0,0,0,0,0,0,0,0,0,0,0],"id":81,"left_children":[1,3,5,-1,7,-1,-1,9,11,13,15,-1,17,-1,-1,-1,-1,-1,-1],"loss_changes":[1.3604866E2,4.521599E1,1.2218933E0,0E0,1.2705513E1,0E0,0E0,6.673406E0,6.4765744E0,9.327793E0,2.7539396E0,0E0,6.005418E0,0E0,0E0,0E0,0E0,0E0,0E0],"parents":[2147483647,0,0,1,1,2,2,4,4,7,7,8,8,9,9,10,10,12,12],"right_children":[2,4,6,-1,8,-1,-1,10,12,14,16,-1,18,-1,-1,-1,-1,-1,-1],"split_conditions":[8.624E3,3.546E3,1.7949E7,-5.659695E4,4.439E3,1.766742E4,5.0779918E4,3.9554074E-1,8.008E6,1.818975E6,1.2495238E1,3.3975E3,1.37525E7,-3.4431E2,5.90265E2,1.01217E3,-3.60768E3,-1.28538E3,-1.2981E2],"split_indices":[0,1,7,0,1,0,0,31,24,22,3,0,8,0,0,0,0,0,0],"split_type":[0,0,0,0,0,0,0,0,0,0,0,0,0,0,0,0,0,0,0],"sum_hessian":[4.34E2,2.97E2,1.37E2,6.3E1,2.34E2,9E0,1.28E2,6E1,1.74E2,5E1,1E1,8E0,1.66E2,8E0,4.2E1,5E0,5E0,2.2E1,1.44E2],"tree_param":{"num_deleted":"0","num_feature":"33","num_nodes":"19","size_leaf_vector":"1"}},{"base_weights":[1.3189065E-1,-1.7561728E-1,2.9715518E-2,-2.9440677E-2,